<?xml version="1.0"?>
<opencv_storage>
<my_nb type_id="opencv-ml-bayesian">
  <var_count>24</var_count>
  <var_all>24</var_all>
  <cls_labels type_id="opencv-matrix">
    <rows>1</rows>
    <cols>4</cols>
    <dt>i</dt>
    <data>
      0 1 2 3</data></cls_labels>
  <count>
    <_ type_id="opencv-matrix">
      <rows>1</rows>
      <cols>24</cols>
      <dt>i</dt>
      <data>
        400 400 400 400 400 400 400 400 400 400 400 400 400 400 400 400
        400 400 400 400 400 400 400 400</data></_>
    <_ type_id="opencv-matrix">
      <rows>1</rows>
      <cols>24</cols>
      <dt>i</dt>
      <data>
        400 400 400 400 400 400 400 400 400 400 400 400 400 400 400 400
        400 400 400 400 400 400 400 400</data></_>
    <_ type_id="opencv-matrix">
      <rows>1</rows>
      <cols>24</cols>
      <dt>i</dt>
      <data>
        400 400 400 400 400 400 400 400 400 400 400 400 400 400 400 400
        400 400 400 400 400 400 400 400</data></_>
    <_ type_id="opencv-matrix">
      <rows>1</rows>
      <cols>24</cols>
      <dt>i</dt>
      <data>
        1000 1000 1000 1000 1000 1000 1000 1000 1000 1000 1000 1000 1000
        1000 1000 1000 1000 1000 1000 1000 1000 1000 1000 1000</data></_></count>
  <sum>
    <_ type_id="opencv-matrix">
      <rows>1</rows>
      <cols>24</cols>
      <dt>d</dt>
      <data>
        833. 220. 123. 123. 119. 428. 472. 387. 226. 314. 320. 393. 874.
        612. 536. 577. 521. 875. 725. 710. 724. 648. 633. 600.</data></_>
    <_ type_id="opencv-matrix">
      <rows>1</rows>
      <cols>24</cols>
      <dt>d</dt>
      <data>
        2525. 725. 68. 82. 690. 2349. 2964. 941. 109. 248. 538. 1888.
        3484. 1228. 584. 501. 891. 2307. 2728. 1035. 522. 599. 1086.
        2781.</data></_>
    <_ type_id="opencv-matrix">
      <rows>1</rows>
      <cols>24</cols>
      <dt>d</dt>
      <data>
        6093. 2852. 658. 1372. 3967. 6316. 933. 333. 413. 1429. 2654.
        3871. 2070. 1410. 1199. 1145. 1005. 909. 5706. 4122. 2510. 1213.
        1133. 2399.</data></_>
    <_ type_id="opencv-matrix">
      <rows>1</rows>
      <cols>24</cols>
      <dt>d</dt>
      <data>
        8969. 5795. 4604. 3832. 4291. 4680. 5088. 4104. 3069. 3839.
        5497. 8865. 9499. 6868. 6018. 5321. 4831. 4943. 5160. 4479.
        4579. 4938. 6819. 9992.</data></_></sum>
  <productsum>
    <_ type_id="opencv-matrix">
      <rows>24</rows>
      <cols>24</cols>
      <dt>d</dt>
      <data>
        10843. 1393. 488. 539. 358. 1214. 2900. 2844. 1127. 2633. 2794.
        3177. 2112. 1790. 1014. 972. 983. 5284. 1491. 1467. 1498. 1370.
        1338. 1299. 1393. 1244. 233. 128. 175. 181. 657. 615. 148. 447.
        630. 999. 455. 279. 297. 302. 287. 959. 365. 353. 400. 320. 355.
        385. 488. 233. 279. 141. 182. 143. 139. 143. 70. 132. 127. 484.
        270. 160. 159. 153. 152. 323. 244. 240. 253. 213. 192. 190. 539.
        128. 141. 245. 226. 142. 161. 145. 61. 136. 156. 302. 235. 163.
        160. 155. 156. 314. 215. 199. 213. 197. 177. 171. 358. 175. 182.
        226. 387. 101. 111. 103. 46. 77. 106. 475. 180. 153. 154. 158.
        157. 200. 216. 194. 210. 194. 173. 168. 1214. 181. 143. 142.
        101. 4750. 562. 560. 435. 464. 540. 481. 4541. 547. 582. 575.
        571. 1124. 1843. 1813. 1713. 1380. 1669. 1594. 2900. 657. 139.
        161. 111. 562. 1974. 1304. 572. 973. 1041. 1194. 1140. 802. 608.
        728. 729. 2672. 840. 818. 856. 786. 765. 767. 2844. 615. 143.
        145. 103. 560. 1304. 1363. 563. 953. 1023. 1066. 980. 680. 468.
        529. 498. 2124. 742. 703. 755. 653. 645. 622. 1127. 148. 70. 61.
        46. 435. 572. 563. 536. 457. 456. 448. 674. 304. 269. 272. 261.
        1281. 505. 474. 492. 447. 407. 370. 2633. 447. 132. 136. 77.
        464. 973. 953. 457. 902. 897. 932. 811. 587. 380. 389. 380.
        1740. 593. 579. 617. 531. 537. 511. 2794. 630. 127. 156. 106.
        540. 1041. 1023. 456. 897. 1104. 1042. 855. 586. 377. 390. 399.
        1835. 632. 600. 640. 540. 582. 555. 3177. 999. 484. 302. 475.
        481. 1194. 1066. 448. 932. 1042. 2353. 969. 671. 528. 497. 472.
        2066. 728. 708. 749. 654. 679. 743. 2112. 455. 270. 235. 180.
        4541. 1140. 980. 674. 811. 855. 969. 6360. 1331. 1278. 1276.
        1196. 2209. 2591. 2577. 2474. 1997. 2365. 2334. 1790. 279. 160.
        163. 153. 547. 802. 680. 304. 587. 586. 671. 1331. 2678. 948.
        1056. 818. 1729. 1052. 1018. 1032. 975. 913. 893. 1014. 297.
        159. 160. 154. 582. 608. 468. 269. 380. 377. 528. 1278. 948.
        914. 940. 757. 1152. 971. 961. 974. 875. 851. 822. 972. 302.
        153. 155. 158. 575. 728. 529. 272. 389. 390. 497. 1276. 1056.
        940. 1387. 901. 1271. 1010. 1013. 1035. 936. 911. 872. 983. 287.
        152. 156. 157. 571. 729. 498. 261. 380. 399. 472. 1196. 818.
        757. 901. 913. 1206. 944. 934. 951. 853. 834. 779. 5284. 959.
        323. 314. 200. 1124. 2672. 2124. 1281. 1740. 1835. 2066. 2209.
        1729. 1152. 1271. 1206. 5739. 1677. 1628. 1675. 1519. 1452.
        1418. 1491. 365. 244. 215. 216. 1843. 840. 742. 505. 593. 632.
        728. 2591. 1052. 971. 1010. 944. 1677. 1747. 1666. 1650. 1420.
        1448. 1365. 1467. 353. 240. 199. 194. 1813. 818. 703. 474. 579.
        600. 708. 2577. 1018. 961. 1013. 934. 1628. 1666. 1670. 1648.
        1398. 1453. 1342. 1498. 400. 253. 213. 210. 1713. 856. 755. 492.
        617. 640. 749. 2474. 1032. 974. 1035. 951. 1675. 1650. 1648.
        1764. 1420. 1457. 1356. 1370. 320. 213. 197. 194. 1380. 786.
        653. 447. 531. 540. 654. 1997. 975. 875. 936. 853. 1519. 1420.
        1398. 1420. 1348. 1239. 1136. 1338. 355. 192. 177. 173. 1669.
        765. 645. 407. 537. 582. 679. 2365. 913. 851. 911. 834. 1452.
        1448. 1453. 1457. 1239. 1385. 1276. 1299. 385. 190. 171. 168.
        1594. 767. 622. 370. 511. 555. 743. 2334. 893. 822. 872. 779.
        1418. 1365. 1342. 1356. 1136. 1276. 1354.</data></_>
    <_ type_id="opencv-matrix">
      <rows>24</rows>
      <cols>24</cols>
      <dt>d</dt>
      <data>
        19067. 5402. 586. 542. 4224. 14869. 19491. 6984. 938. 2172.
        4406. 12964. 22092. 7848. 3750. 3343. 6134. 16162. 17149. 6495.
        3329. 3874. 6877. 17638. 5402. 2955. 201. 182. 1293. 4277. 5613.
        1979. 284. 590. 1206. 4230. 6404. 2325. 1131. 964. 1758. 4620.
        4957. 1911. 1001. 1181. 2014. 5146. 586. 201. 82. 29. 126. 409.
        550. 226. 31. 154. 144. 402. 594. 204. 90. 93. 179. 483. 503.
        178. 90. 146. 184. 462. 542. 182. 29. 96. 181. 512. 568. 176.
        31. 55. 133. 440. 793. 358. 162. 107. 184. 453. 604. 230. 130.
        157. 287. 668. 4224. 1293. 126. 181. 3098. 4442. 5255. 1575.
        163. 478. 862. 3237. 6126. 2161. 952. 814. 1538. 3906. 5418.
        2020. 1032. 1084. 1860. 4772. 14869. 4277. 409. 512. 4442.
        14843. 17441. 5491. 619. 1429. 3110. 11087. 20738. 7218. 3352.
        2883. 5165. 13500. 16558. 6567. 3283. 3614. 6388. 16252. 19491.
        5613. 550. 568. 5255. 17441. 23992. 7557. 961. 1870. 4096.
        14359. 25836. 9169. 4233. 3873. 7236. 18358. 20315. 7694. 3835.
        4351. 7879. 20682. 6984. 1979. 226. 176. 1575. 5491. 7557. 3027.
        472. 956. 1822. 4788. 8333. 3036. 1402. 1302. 2403. 6290. 6414.
        2388. 1217. 1511. 2582. 6774. 938. 284. 31. 31. 163. 619. 961.
        472. 263. 200. 311. 621. 1001. 436. 210. 189. 380. 861. 702.
        262. 142. 164. 326. 904. 2172. 590. 154. 55. 478. 1429. 1870.
        956. 200. 3424. 1133. 1132. 2195. 757. 313. 333. 620. 1624.
        1832. 560. 316. 324. 675. 1648. 4406. 1206. 144. 133. 862. 3110.
        4096. 1822. 311. 1133. 1982. 2783. 4723. 1671. 810. 725. 1325.
        3613. 3650. 1359. 706. 794. 1510. 3686. 12964. 4230. 402. 440.
        3237. 11087. 14359. 4788. 621. 1132. 2783. 9834. 16530. 5905.
        2771. 2437. 4428. 11506. 12836. 4887. 2513. 2961. 5125. 13235.
        22092. 6404. 594. 793. 6126. 20738. 25836. 8333. 1001. 2195.
        4723. 16530. 31724. 11235. 5432. 4531. 7928. 20171. 23876. 9253.
        4747. 5423. 10252. 25137. 7848. 2325. 204. 358. 2161. 7218.
        9169. 3036. 436. 757. 1671. 5905. 11235. 4932. 2196. 1713. 2968.
        7217. 8419. 3175. 1640. 2017. 3866. 9809. 3750. 1131. 90. 162.
        952. 3352. 4233. 1402. 210. 313. 810. 2771. 5432. 2196. 1608.
        1193. 1672. 3320. 3913. 1479. 780. 1030. 2018. 4817. 3343. 964.
        93. 107. 814. 2883. 3873. 1302. 189. 333. 725. 2437. 4531. 1713.
        1193. 1075. 1492. 3009. 3351. 1266. 655. 793. 1554. 3869. 6134.
        1758. 179. 184. 1538. 5165. 7236. 2403. 380. 620. 1325. 4428.
        7928. 2968. 1672. 1492. 2705. 5664. 6018. 2272. 1162. 1372.
        2579. 6671. 16162. 4620. 483. 453. 3906. 13500. 18358. 6290.
        861. 1624. 3613. 11506. 20171. 7217. 3320. 3009. 5664. 15041.
        15680. 5924. 2989. 3503. 6216. 16282. 17149. 4957. 503. 604.
        5418. 16558. 20315. 6414. 702. 1832. 3650. 12836. 23876. 8419.
        3913. 3351. 6018. 15680. 19396. 7322. 3659. 4171. 7394. 18976.
        6495. 1911. 178. 230. 2020. 6567. 7694. 2388. 262. 560. 1359.
        4887. 9253. 3175. 1479. 1266. 2272. 5924. 7322. 3039. 1472.
        1573. 2871. 7147. 3329. 1001. 90. 130. 1032. 3283. 3835. 1217.
        142. 316. 706. 2513. 4747. 1640. 780. 655. 1162. 2989. 3659.
        1472. 824. 871. 1492. 3653. 3874. 1181. 146. 157. 1084. 3614.
        4351. 1511. 164. 324. 794. 2961. 5423. 2017. 1030. 793. 1372.
        3503. 4171. 1573. 871. 2981. 1832. 4457. 6877. 2014. 184. 287.
        1860. 6388. 7879. 2582. 326. 675. 1510. 5125. 10252. 3866. 2018.
        1554. 2579. 6216. 7394. 2871. 1492. 1832. 3766. 8515. 17638.
        5146. 462. 668. 4772. 16252. 20682. 6774. 904. 1648. 3686.
        13235. 25137. 9809. 4817. 3869. 6671. 16282. 18976. 7147. 3653.
        4457. 8515. 21603.</data></_>
    <_ type_id="opencv-matrix">
      <rows>24</rows>
      <cols>24</cols>
      <dt>d</dt>
      <data>
        95435. 45030. 9811. 20195. 60057. 96814. 12171. 4266. 6826.
        22944. 41717. 59869. 29516. 19857. 17258. 16435. 14196. 12607.
        86294. 62476. 38141. 17971. 15080. 34040. 45030. 22674. 4519.
        8576. 27411. 45170. 5596. 1891. 3242. 11304. 20366. 29101.
        12715. 8712. 7749. 7450. 6379. 5861. 39589. 28697. 17459. 8032.
        6344. 15026. 9811. 4519. 5034. 1662. 5986. 10297. 955. 334. 540.
        2384. 4345. 6448. 2832. 1981. 1665. 1742. 1725. 1189. 9049.
        6372. 3843. 1868. 1451. 2635. 20195. 8576. 1662. 7010. 15627.
        22326. 3579. 1563. 1341. 4341. 8315. 12348. 9444. 6169. 4756.
        4311. 3796. 3455. 21255. 15688. 9920. 5397. 5910. 10434. 60057.
        27411. 5986. 15627. 41973. 63995. 9127. 3471. 4069. 13792.
        25776. 37679. 22563. 15015. 12259. 11564. 10025. 9094. 58089.
        42589. 26686. 13676. 13098. 25149. 96814. 45170. 10297. 22326.
        63995. 101418. 13597. 4717. 6578. 22785. 42153. 61112. 32597.
        21680. 18414. 17545. 15315. 13682. 90589. 65955. 40859. 19998.
        17612. 36485. 12171. 5596. 955. 3579. 9127. 13597. 9265. 2270.
        567. 2360. 5083. 8456. 8481. 6129. 4802. 4751. 4533. 5079.
        13683. 9570. 5541. 2990. 5550. 11675. 4266. 1891. 334. 1563.
        3471. 4717. 2270. 2169. 384. 800. 1696. 2888. 4095. 3196. 2709.
        2178. 2060. 2415. 5106. 3667. 2141. 1752. 4105. 5251. 6826.
        3242. 540. 1341. 4069. 6578. 567. 384. 797. 1699. 2940. 4139.
        2046. 1400. 1345. 1262. 1015. 866. 5832. 4239. 2528. 1264. 1168.
        2320. 22944. 11304. 2384. 4341. 13792. 22785. 2360. 800. 1699.
        5935. 10318. 14493. 6244. 4190. 3736. 3568. 3017. 2684. 19873.
        14398. 8831. 4010. 2866. 7264. 41717. 20366. 4345. 8315. 25776.
        42153. 5083. 1696. 2940. 10318. 18996. 26655. 12135. 8284. 7253.
        6891. 5905. 5396. 37118. 26916. 16445. 7660. 6090. 14168. 59869.
        29101. 6448. 12348. 37679. 61112. 8456. 2888. 4139. 14493.
        26655. 38777. 18651. 12764. 11054. 10672. 9229. 8437. 54375.
        39347. 23898. 11345. 9886. 21928. 29516. 12715. 2832. 9444.
        22563. 32597. 8481. 4095. 2046. 6244. 12135. 18651. 17892.
        11521. 9328. 8382. 7235. 7525. 31294. 22836. 14076. 8266. 11946.
        20998. 19857. 8712. 1981. 6169. 15015. 21680. 6129. 3196. 1400.
        4190. 8284. 12764. 11521. 9054. 7227. 6799. 5695. 5674. 21135.
        15287. 9304. 5650. 8646. 14686. 17258. 7749. 1665. 4756. 12259.
        18414. 4802. 2709. 1345. 3736. 7253. 11054. 9328. 7227. 6845.
        6146. 5036. 4845. 17635. 12686. 7590. 4557. 7052. 11909. 16435.
        7450. 1742. 4311. 11564. 17545. 4751. 2178. 1262. 3568. 6891.
        10672. 8382. 6799. 6146. 6569. 4826. 4550. 16670. 11941. 7078.
        4132. 6058. 10786. 14196. 6379. 1725. 3796. 10025. 15315. 4533.
        2060. 1015. 3017. 5905. 9229. 7235. 5695. 5036. 4826. 4765.
        3950. 14715. 10430. 6246. 3478. 5098. 9189. 12607. 5861. 1189.
        3455. 9094. 13682. 5079. 2415. 866. 2684. 5396. 8437. 7525.
        5674. 4845. 4550. 3950. 4411. 13246. 9498. 5585. 3444. 5843.
        9484. 86294. 39589. 9049. 21255. 58089. 90589. 13683. 5106.
        5832. 19873. 37118. 54375. 31294. 21135. 17635. 16670. 14715.
        13246. 83104. 59930. 36762. 18173. 17673. 35839. 62476. 28697.
        6372. 15688. 42589. 65955. 9570. 3667. 4239. 14398. 26916.
        39347. 22836. 15287. 12686. 11941. 10430. 9498. 59930. 43948.
        27071. 13598. 13113. 25712. 38141. 17459. 3843. 9920. 26686.
        40859. 5541. 2141. 2528. 8831. 16445. 23898. 14076. 9304. 7590.
        7078. 6246. 5585. 36762. 27071. 17382. 8801. 8153. 15432. 17971.
        8032. 1868. 5397. 13676. 19998. 2990. 1752. 1264. 4010. 7660.
        11345. 8266. 5650. 4557. 4132. 3478. 3444. 18173. 13598. 8801.
        5631. 6177. 8845. 15080. 6344. 1451. 5910. 13098. 17612. 5550.
        4105. 1168. 2866. 6090. 9886. 11946. 8646. 7052. 6058. 5098.
        5843. 17673. 13113. 8153. 6177. 11071. 13789. 34040. 15026.
        2635. 10434. 25149. 36485. 11675. 5251. 2320. 7264. 14168.
        21928. 20998. 14686. 11909. 10786. 9189. 9484. 35839. 25712.
        15432. 8845. 13789. 31989.</data></_>
    <_ type_id="opencv-matrix">
      <rows>24</rows>
      <cols>24</cols>
      <dt>d</dt>
      <data>
        151899. 92771. 67191. 48553. 44596. 39313. 49687. 44623. 42541.
        60415. 85950. 130822. 84403. 59172. 53847. 48058. 41200. 42047.
        41560. 33231. 34422. 38579. 59534. 89950. 92771. 74515. 51423.
        36821. 30608. 26398. 27860. 25217. 30880. 43123. 60319. 90485.
        57998. 42977. 35834. 29845. 26857. 25388. 27717. 22758. 24120.
        28363. 40556. 61846. 67191. 51423. 49888. 36275. 30277. 22990.
        24119. 21728. 22473. 33294. 45428. 69095. 42288. 32281. 27155.
        24193. 21884. 22572. 25638. 20263. 19725. 21644. 30247. 46178.
        48553. 36821. 36275. 40680. 33988. 30232. 19679. 17542. 17906.
        26552. 34679. 48684. 30963. 24278. 20289. 17465. 16620. 19597.
        31176. 22613. 20742. 19476. 24519. 35289. 44596. 30608. 30277.
        33988. 55333. 50279. 19536. 18980. 17592. 22696. 28928. 38449.
        27992. 21669. 19161. 17130. 17517. 20412. 47022. 33733. 28811.
        24502. 27569. 34710. 39313. 26398. 22990. 30232. 50279. 77682.
        21291. 17956. 15489. 20376. 22554. 27694. 27355. 20075. 18297.
        16262. 17970. 22086. 60302. 44567. 35056. 28808. 29495. 34073.
        49687. 27860. 24119. 19679. 19536. 21291. 71998. 50879. 25012.
        26094. 34267. 46337. 43376. 28927. 36086. 40771. 45277. 54942.
        25998. 20944. 20956. 20097. 26703. 36605. 44623. 25217. 21728.
        17542. 18980. 17956. 50879. 56556. 24965. 24305. 31795. 40738.
        36416. 24137. 29216. 31902. 39318. 45694. 21561. 17420. 17893.
        17195. 23329. 31497. 42541. 30880. 22473. 17906. 17592. 15489.
        25012. 24965. 34687. 31672. 32354. 37158. 26671. 21208. 20911.
        19250. 22651. 28201. 16744. 13600. 14505. 14862. 15991. 24058.
        60415. 43123. 33294. 26552. 22696. 20376. 26094. 24305. 31672.
        46661. 48015. 53554. 33095. 24730. 22495. 21226. 23883. 27469.
        20496. 15930. 16497. 16343. 21210. 31505. 85950. 60319. 45428.
        34679. 28928. 22554. 34267. 31795. 32354. 48015. 69687. 83815.
        51610. 37325. 34252. 31231. 31025. 33179. 23984. 19124. 21143.
        23810. 35627. 53112. 130822. 90485. 69095. 48684. 38449. 27694.
        46337. 40738. 37158. 53554. 83815. 148101. 92284. 66266. 56759.
        48355. 43427. 43641. 31253. 27994. 33221. 40880. 64875. 99509.
        84403. 57998. 42288. 30963. 27992. 27355. 43376. 36416. 26671.
        33095. 51610. 92284. 161999. 103483. 77231. 61159. 52245. 47272.
        38778. 47030. 57039. 70447. 102617. 141151. 59172. 42977. 32281.
        24278. 21669. 20075. 28927. 24137. 21208. 24730. 37325. 66266.
        103483. 96170. 68696. 49251. 38894. 34239. 27319. 32931. 42371.
        53302. 76998. 104554. 53847. 35834. 27155. 20289. 19161. 18297.
        36086. 29216. 20911. 22495. 34252. 56759. 77231. 68696. 74582.
        55682. 41905. 36394. 23733. 26684. 31355. 41708. 61871. 85767.
        48058. 29845. 24193. 17465. 17130. 16262. 40771. 31902. 19250.
        21226. 31231. 48355. 61159. 49251. 55682. 59915. 42207. 36776.
        21587. 23125. 25496. 31976. 47092. 65288. 41200. 26857. 21884.
        16620. 17517. 17970. 45277. 39318. 22651. 23883. 31025. 43427.
        52245. 38894. 41905. 42207. 52719. 45418. 22482. 20752. 21686.
        25882. 37421. 51208. 42047. 25388. 22572. 19597. 20412. 22086.
        54942. 45694. 28201. 27469. 33179. 43641. 47272. 34239. 36394.
        36776. 45418. 64881. 25658. 22581. 24929. 26983. 32046. 42267.
        41560. 27717. 25638. 31176. 47022. 60302. 25998. 21561. 16744.
        20496. 23984. 31253. 38778. 27319. 23733. 21587. 22482. 25658.
        66284. 42511. 33713. 29902. 34939. 43468. 33231. 22758. 20263.
        22613. 33733. 44567. 20944. 17420. 13600. 15930. 19124. 27994.
        47030. 32931. 26684. 23125. 20752. 22581. 42511. 45309. 36159.
        31815. 35760. 43270. 34422. 24120. 19725. 20742. 28811. 35056.
        20956. 17893. 14505. 16497. 21143. 33221. 57039. 42371. 31355.
        25496. 21686. 24929. 33713. 36159. 45511. 39512. 42177. 50916.
        38579. 28363. 21644. 19476. 24502. 28808. 20097. 17195. 14862.
        16343. 23810. 40880. 70447. 53302. 41708. 31976. 25882. 26983.
        29902. 31815. 39512. 56180. 55954. 66146. 59534. 40556. 30247.
        24519. 27569. 29495. 26703. 23329. 15991. 21210. 35627. 64875.
        102617. 76998. 61871. 47092. 37421. 32046. 34939. 35760. 42177.
        55954. 93309. 107696. 89950. 61846. 46178. 35289. 34710. 34073.
        36605. 31497. 24058. 31505. 53112. 99509. 141151. 104554. 85767.
        65288. 51208. 42267. 43468. 43270. 50916. 66146. 107696. 173618.</data></_></productsum>
  <avg>
    <_ type_id="opencv-matrix">
      <rows>1</rows>
      <cols>24</cols>
      <dt>d</dt>
      <data>
        2.0825000000000000e+000 5.5000000000000004e-001
        3.0750000000000000e-001 3.0750000000000000e-001
        2.9749999999999999e-001 1.0700000000000001e+000
        1.1799999999999999e+000 9.6750000000000003e-001
        5.6499999999999995e-001 7.8500000000000003e-001
        8.0000000000000004e-001 9.8250000000000004e-001
        2.1850000000000001e+000 1.5300000000000000e+000
        1.3400000000000001e+000 1.4424999999999999e+000
        1.3025000000000000e+000 2.1875000000000000e+000
        1.8125000000000000e+000 1.7749999999999999e+000
        1.8100000000000001e+000 1.6200000000000001e+000
        1.5825000000000000e+000 1.5000000000000000e+000</data></_>
    <_ type_id="opencv-matrix">
      <rows>1</rows>
      <cols>24</cols>
      <dt>d</dt>
      <data>
        6.3125000000000000e+000 1.8125000000000000e+000
        1.7000000000000001e-001 2.0499999999999999e-001
        1.7250000000000001e+000 5.8724999999999996e+000
        7.4100000000000001e+000 2.3525000000000000e+000
        2.7250000000000002e-001 6.2000000000000000e-001
        1.3450000000000000e+000 4.7199999999999998e+000
        8.7100000000000009e+000 3.0699999999999998e+000
        1.4600000000000000e+000 1.2524999999999999e+000
        2.2275000000000000e+000 5.7675000000000001e+000
        6.8200000000000003e+000 2.5874999999999999e+000
        1.3049999999999999e+000 1.4975000000000001e+000
        2.7149999999999999e+000 6.9524999999999997e+000</data></_>
    <_ type_id="opencv-matrix">
      <rows>1</rows>
      <cols>24</cols>
      <dt>d</dt>
      <data>
        1.5232500000000000e+001 7.1299999999999999e+000
        1.6450000000000000e+000 3.4300000000000002e+000
        9.9175000000000004e+000 1.5789999999999999e+001
        2.3325000000000000e+000 8.3250000000000002e-001
        1.0325000000000000e+000 3.5724999999999998e+000
        6.6349999999999998e+000 9.6775000000000002e+000
        5.1749999999999998e+000 3.5249999999999999e+000
        2.9975000000000001e+000 2.8624999999999998e+000
        2.5125000000000002e+000 2.2725000000000000e+000
        1.4265000000000001e+001 1.0305000000000000e+001
        6.2750000000000004e+000 3.0325000000000002e+000
        2.8325000000000000e+000 5.9974999999999996e+000</data></_>
    <_ type_id="opencv-matrix">
      <rows>1</rows>
      <cols>24</cols>
      <dt>d</dt>
      <data>
        8.9689999999999994e+000 5.7949999999999999e+000
        4.6040000000000001e+000 3.8319999999999999e+000
        4.2910000000000004e+000 4.6799999999999997e+000
        5.0880000000000001e+000 4.1040000000000001e+000
        3.0690000000000000e+000 3.8390000000000000e+000
        5.4969999999999999e+000 8.8650000000000002e+000
        9.4990000000000006e+000 6.8680000000000003e+000
        6.0179999999999998e+000 5.3209999999999997e+000
        4.8310000000000004e+000 4.9429999999999996e+000
        5.1600000000000001e+000 4.4790000000000001e+000
        4.5789999999999997e+000 4.9379999999999997e+000
        6.8190000000000000e+000 9.9920000000000009e+000</data></_></avg>
  <inv_eigen_values>
    <_ type_id="opencv-matrix">
      <rows>1</rows>
      <cols>24</cols>
      <dt>d</dt>
      <data>
        2.8029032750114726e-002 4.2813400999093185e-002
        1.5884940897005514e-001 2.0361309366599248e-001
        2.4692596889563270e-001 4.5417209784047063e-001
        4.9605004849932488e-001 6.1397676650685795e-001
        7.2966880261564870e-001 8.4507363559006354e-001
        1.0951932149755381e+000 1.1763021917856620e+000
        1.7360619509733415e+000 2.2186858875513895e+000
        2.5619898858967631e+000 3.0397407838314492e+000
        3.2534782896187062e+000 3.4213345830956641e+000
        3.8382825432422076e+000 4.1581352469571957e+000
        5.9708200382608583e+000 5.9826788529672195e+000
        7.9397070970329322e+000 1.6482721982853828e+001</data></_>
    <_ type_id="opencv-matrix">
      <rows>1</rows>
      <cols>24</cols>
      <dt>d</dt>
      <data>
        5.8230633543619147e-002 8.6067123886230973e-002
        1.1886111569529678e-001 1.4409910404843759e-001
        1.8064715345063470e-001 2.1614219762864981e-001
        2.7935812815147482e-001 3.2389994304963721e-001
        4.3470969011237137e-001 4.9885421872469726e-001
        5.6678979667411911e-001 1.0087160437853726e+000
        1.1889823854626540e+000 1.4022600850673141e+000
        1.4877314246383644e+000 1.6725114517560564e+000
        2.2283092562932723e+000 2.6427288041542152e+000
        3.0418502037803150e+000 4.3831711513506582e+000
        5.6019961373376423e+000 6.1130892575065889e+000
        6.4262293842534133e+000 9.6983634092129183e+000</data></_>
    <_ type_id="opencv-matrix">
      <rows>1</rows>
      <cols>24</cols>
      <dt>d</dt>
      <data>
        9.2240095064658016e-003 3.5847877539629161e-002
        6.2873444180051183e-002 7.4983028561917797e-002
        9.7828226048963296e-002 1.2940283196744196e-001
        1.5850038920467230e-001 3.0438249343718748e-001
        3.8709928344703437e-001 4.8033230716309461e-001
        5.5737692572926956e-001 7.9389925314622767e-001
        8.9641869503196570e-001 1.0306153206276303e+000
        1.1511234743030176e+000 1.3622500975311402e+000
        1.6910366851881227e+000 1.7115638266970035e+000
        1.8430910394068887e+000 2.1784293118533071e+000
        2.3461300014358217e+000 2.7050981588566443e+000
        2.8828360886131117e+000 3.4339614563833800e+000</data></_>
    <_ type_id="opencv-matrix">
      <rows>1</rows>
      <cols>24</cols>
      <dt>d</dt>
      <data>
        4.4623842621759439e-003 4.4729927910757677e-003
        7.2799378088920889e-003 7.8840720057663290e-003
        2.4683165702722790e-002 2.8644187191004280e-002
        3.4852210254896335e-002 3.7639885947841706e-002
        4.9515462250245459e-002 5.8340454146262537e-002
        6.4069923160434750e-002 6.7802564008508800e-002
        7.4335729036838286e-002 8.0268489152932748e-002
        8.7544601241295067e-002 1.0148398263742948e-001
        1.0316479887420672e-001 1.1110849611837584e-001
        1.1361333858406816e-001 1.3145452515101316e-001
        1.4447805679360895e-001 1.6378970955920372e-001
        1.8480343939760296e-001 2.3694508431622474e-001</data></_></inv_eigen_values>
  <cov_rotate_mats>
    <_ type_id="opencv-matrix">
      <rows>24</rows>
      <cols>24</cols>
      <dt>d</dt>
      <data>
        7.5468883057205649e-001 1.0684858927954718e-001
        2.3183810947575115e-002 2.2036487562951766e-002
        1.0190847451501688e-002 9.1315364051136938e-002
        2.1807866593517691e-001 2.0970487014917014e-001
        8.3673850298213323e-002 1.8817232235679374e-001
        2.0698944352001819e-001 2.4281649599486918e-001
        9.4853787662292147e-002 4.8523572749092539e-002
        -7.6204188891559133e-003 -1.5606528598366849e-002
        -3.0804310009723244e-003 3.9937896488118385e-001
        1.9844088660663620e-002 1.8757896347650682e-002
        2.0158087714495131e-002 1.5989168574528836e-002
        2.2066260460712396e-002 2.7433950445989005e-002
        -1.2435670987468031e-001 -3.0940643204124315e-002
        -3.3213125818803216e-003 -8.4600349627995848e-003
        -1.1682084920060024e-002 6.3655357405615853e-001
        -3.2653502954279989e-002 -2.0718951176279553e-002
        1.7843743594922863e-002 -1.8978431264277566e-002
        -1.3888528181975703e-002 -3.6847730108781389e-002
        6.4500651545104704e-001 -2.7480676621491191e-002
        1.0289554930976967e-002 4.3600603856248753e-004
        6.5153090973209919e-003 -3.7622055081734267e-002
        1.7719456262208114e-001 1.7821638364646702e-001
        1.5995231609420357e-001 1.1040502535290850e-001
        1.6742632504011348e-001 1.6467149089712216e-001
        -5.2422920327732681e-001 -7.0082025859901406e-004
        -5.1565522982040736e-002 -6.0636409587440446e-002
        -7.1340114614169434e-002 -6.8815430639823122e-002
        3.2760689224002099e-001 1.2572032425937099e-001
        1.7034495267494087e-001 1.9120940179377380e-002
        1.9636960195745082e-002 -4.3967318408118725e-002
        1.7161371613790342e-003 9.3484298566144111e-002
        2.0609731599522230e-002 8.4301388535237290e-002
        6.5694508139668775e-002 7.2927210160148426e-001
        1.7246771116524454e-002 9.6009084793164060e-003
        2.1558421237597391e-002 2.5121702488056636e-002
        6.2864813269348663e-003 1.5380162254207387e-002
        2.1850039183472011e-001 -4.0377518115197680e-001
        -1.4349453107116544e-001 -6.7929384713420637e-002
        -1.5668837510304920e-001 3.6330470744327286e-003
        -9.4053587944836634e-002 -6.9832564159588550e-002
        -2.3091771915903735e-002 -1.0743191937469549e-002
        -7.4934063947568519e-002 -4.8504932057865824e-001
        5.5728562969155730e-002 6.7681458875048184e-001
        5.4248170112763061e-002 9.4725923387439903e-002
        1.6344743726020749e-002 6.1455623176749838e-002
        -2.1897889054824076e-002 -1.8161223916418445e-002
        -4.5317023924055282e-002 -3.3255471278181709e-003
        -3.4046852321679227e-002 -5.4933501410630026e-002
        1.6557158090274776e-001 -3.4142040910698929e-001
        -1.4974270159071193e-001 -6.0855474010646116e-002
        -1.7586699398012950e-001 4.7700120782896052e-002
        4.2767271430057173e-002 4.1528664636720426e-002
        1.2242066760962825e-001 4.1062656915904792e-002
        -5.8081274824872166e-003 -5.1960141179818620e-001
        -8.6987791530254821e-002 -6.7276409012983296e-001
        -1.0281079091428212e-001 -1.3022134673021171e-001
        -2.2997014230595528e-002 1.0907126811647858e-001
        2.2641871281926948e-002 2.4967671441411467e-002
        1.6747601305997631e-002 1.8485811024989966e-002
        -5.3658149767986602e-003 -6.7252505761684525e-002
        7.5908763093383222e-003 3.9858881901751408e-001
        -1.7239569114451153e-001 -1.4019583654612541e-001
        -2.3516647839214644e-001 -2.4220690802541600e-001
        3.7691727845053291e-001 2.0899126262662429e-001
        -1.5599236156284552e-001 4.6107404864165064e-002
        1.1419456629498405e-001 -2.8222015282995133e-001
        3.6982589871078342e-001 -5.4330467372829830e-002
        9.4023420965354029e-002 2.4642554109415474e-001
        1.4444596105148960e-001 -2.7949843604626795e-001
        -1.3454433292209791e-001 -1.0746915268238880e-001
        -1.1153205907660926e-001 -1.4455401844766483e-001
        -3.1605194279202248e-002 2.3994035615662102e-002
        -9.0367596805072239e-002 3.0444978212964130e-001
        -8.7678726755331060e-002 -5.5989728585291547e-002
        -9.2370681281755379e-002 5.0393759571486163e-001
        1.4823800214565000e-001 2.5888981562985502e-001
        1.6426029491878220e-002 1.1061008634090158e-001
        2.2585064729741672e-001 -2.0297396664492376e-001
        -5.6327579315065945e-001 1.8334695022042280e-001
        -1.0583968053201642e-001 -6.9740974814204895e-002
        -3.9877763181489320e-002 -1.8862492404569123e-001
        7.3919347866973323e-002 3.7342715025351567e-002
        9.0645296590883162e-002 9.6988602326268131e-002
        4.4210603047898901e-002 -3.9480814221366414e-002
        -7.9276664133282965e-002 2.6868603869518048e-001
        -4.4560917605945383e-002 -1.0485572803632699e-001
        -1.6709639424156586e-001 -2.5127724758597647e-001
        -3.1804122264105944e-001 8.3086027375086136e-002
        1.4792280020630771e-001 1.1819281902752862e-001
        1.7704377957002143e-001 -1.0834710546146763e-001
        2.2940342176351719e-001 1.3518691547260867e-001
        -2.0311008867385291e-001 -6.4415237273192127e-001
        -3.0631214098110149e-001 6.1132532835613179e-002
        3.6787019135076156e-002 3.4894961659895376e-003
        1.6490384769820524e-002 -6.1657193786185824e-002
        7.0080250661451746e-003 1.8801978805362121e-002
        -1.2723166276169851e-001 -5.3631409895570759e-001
        -5.0307512767470343e-002 3.0659458488017008e-003
        7.2046633021662199e-002 -4.4160384793897819e-002
        4.9165347442620871e-001 2.8905772416619713e-001
        8.0336531050499593e-002 1.4426347796785349e-001
        3.8061170572251418e-002 2.7179884154573070e-001
        8.3878040970558024e-002 1.0256608132517755e-001
        -1.4791550371845885e-001 -3.0203507904545573e-001
        -7.0391877627280400e-002 -3.3362843729568659e-001
        -2.9983740234969244e-002 -6.5773587114808962e-002
        -6.4356491380609226e-002 -3.9302256307315771e-002
        -1.9086559746811754e-002 2.0811901268603768e-002
        -3.2056388808771083e-002 -1.4672319011582699e-001
        -3.2281099578545712e-002 -1.6243409811429441e-001
        -1.3318372604163134e-001 -3.5081035710435288e-001
        -2.1342932033923853e-001 2.3107764983968565e-001
        2.1273808075137907e-001 2.0645627565379118e-001
        1.9534919204316681e-001 9.6528076521765246e-002
        -5.0068577433019137e-002 -6.1035820443795467e-003
        1.1406533553998811e-001 3.2940732657159066e-001
        2.1189094639978819e-002 -1.6024081022929515e-001
        2.3319260560081423e-001 2.7396344771392828e-001
        4.1207609007434948e-001 2.4795684304073939e-001
        2.2177893248118935e-001 1.2166389954011551e-001
        -1.2012730947872839e-001 -9.5809162426668121e-002
        -2.0498113045099062e-002 9.8471362838175508e-002
        1.0571668827646595e-001 1.9473082501634145e-001
        -4.0478132860253635e-001 3.3935662924346521e-001
        3.2987670268234554e-001 2.2202400542187453e-001
        2.2340943964336052e-001 4.2805722116651179e-002
        1.0397329099552532e-001 -5.5054483486170785e-002
        8.7134765795305172e-002 3.0209141153977065e-001
        -7.7686912028035113e-002 -7.6619870020593304e-003
        -1.6099736974256293e-001 -2.3653749394810350e-001
        -2.9071713622194573e-001 -2.3920768488066282e-001
        -2.1036116549831541e-001 -2.0411532850955905e-001
        4.8653825970964102e-003 1.0803764925350473e-001
        2.2372939253034740e-001 4.7762700680624876e-001
        5.4082179075855941e-001 -1.7312195511469755e-001
        9.3970887790554972e-002 2.0052421583349211e-001
        7.8891550963030369e-002 -1.8171909772640066e-002
        1.5638525568503002e-002 -3.7389127814396234e-001
        1.2157763252670491e-001 5.5171709100236194e-002
        -5.3913463147164657e-002 -6.0327994700167725e-002
        1.2690172835615368e-001 -4.1789418071140373e-002
        1.5187023205260194e-001 9.7079762474654649e-002
        1.8099138252619026e-001 1.4447005042297409e-001
        -6.2050232309311025e-002 -2.4461850669232291e-001
        6.5888989691443883e-002 1.1530631937874403e-001
        2.0557017476839917e-001 -2.7930387858288813e-001
        -2.4734542701881351e-001 4.7374347781066958e-002
        6.4391689222401322e-002 1.6900757101060168e-001
        2.7140853363966166e-001 -1.3391934186186791e-001
        -4.8674189666176226e-001 1.1226628899546361e-001
        6.3403283985666539e-002 1.7234400253964128e-002
        8.6562025586515823e-002 -2.4033166743871532e-002
        -4.9490015318823577e-002 -7.4863182657988109e-002
        1.0097293825178887e-001 9.3254591709821880e-002
        1.9206464612726060e-002 2.1117232354454823e-001
        -2.9162702495304943e-001 -5.0546886879973973e-001
        6.1130398859143134e-002 5.3970755943489074e-002
        3.5035658811444000e-002 7.3666953620307368e-002
        1.0333729196486446e-001 -2.7336253319770146e-002
        6.2004461383579953e-003 3.7965486099385043e-001
        -5.7131015030775188e-003 -2.0420263806124794e-001
        -4.1608225071923549e-001 -1.0740446029368958e-001
        -5.1608973041063079e-002 -5.2564089875956309e-003
        -5.8287276650517431e-002 1.9315628214652175e-001
        -5.9317244999635477e-001 3.0159118690781486e-002
        -5.1573395210217261e-002 -6.1874711641286564e-002
        1.2527714051342555e-003 -3.7381750414356860e-002
        7.9690030361310130e-002 4.4079872268504577e-001
        3.1003516701969554e-002 1.1782961716936630e-001
        -2.3864034257088951e-001 7.5449172442784276e-002
        1.2571197491975661e-001 -2.7162580765217711e-002
        2.5349306721014875e-001 -5.0034395997602221e-001
        5.3213633369768742e-001 3.9587329483321672e-002
        1.1841594615733166e-001 -3.7824515975382042e-002
        2.0294714034004509e-002 1.9304316624872721e-002
        1.4545878593872141e-001 1.0220902597702035e-001
        -3.6795442952413798e-001 -1.2706325742644489e-001
        -2.4754311241061477e-002 -6.5440122952396998e-002
        -1.3634218630062006e-001 2.8859759378724587e-001
        1.8595107047757624e-002 1.1664155204521034e-002
        7.0010054741636837e-002 7.2286424928539567e-002
        -3.7992719331585362e-001 -1.1931942153951652e-001
        2.0800602558954470e-001 -1.5703979220398977e-002
        -1.4391655865824673e-001 2.2884867406202217e-001
        3.0638706492348261e-001 -3.0438134819224993e-001
        -1.6291728372456490e-001 2.9408725039271069e-002
        -5.1245224048934120e-002 1.5300150135280407e-002
        1.4726653858931207e-001 -2.2501776798761269e-001
        4.9939295082098462e-001 -2.9920111331637429e-002
        5.9517086436266388e-002 -8.4295414383174380e-002
        -2.3461146358184401e-001 1.4789430333338213e-001
        9.4689592049580815e-002 2.8065671166496481e-001
        3.7635574374491707e-002 5.4691347661550857e-002
        4.0505482030624562e-001 -6.9342214248543380e-002
        -9.5728492720419736e-002 -5.6580338084658965e-003
        2.5451557026926811e-002 -1.4761775240992639e-001
        4.0410040491253868e-001 7.3421060881784711e-002
        -1.0197057574998307e-001 -7.3620022772369412e-002
        -1.3093047017225076e-003 5.9042921486947057e-002
        -6.2902927856536750e-001 1.6240825671447948e-001
        2.8762623277545074e-001 -7.5589422780255808e-002
        -1.3540957192885125e-001 -7.5311926837740809e-002
        -2.6160887133482406e-002 -1.0107418556851014e-001
        1.0183231535033456e-001 2.2652091645106065e-001
        -6.6804432676911734e-003 6.3874334362465255e-003
        3.7319910090536734e-001 1.7715617717953275e-001
        -1.8488563856166890e-001 5.2257620842727996e-002
        6.2020841933090175e-002 -4.0033027820525577e-002
        2.0131591901844076e-001 2.5744121690457611e-001
        -1.3223548719679709e-001 -1.1012662332876832e-001
        -8.2651182115419927e-002 1.2256827351213074e-003
        6.1674258980023744e-001 -2.4652709979471624e-001
        1.1819099709343953e-001 -5.3957146960330438e-002
        -1.4977365262040029e-001 -7.8659328631517075e-002
        1.7361385414074063e-001 -1.9352981314157253e-001
        -4.1896125497482194e-002 2.9604258019734975e-001
        4.1595436216044258e-002 6.8088277446487315e-003
        -2.4211149157335084e-002 -1.2063948098418738e-001
        9.5661020254796086e-002 -1.1866508503523955e-002
        1.1064739759252616e-001 -1.0142699921653762e-001
        1.9019347451504803e-001 -2.2287160300807876e-001
        9.0529225863731522e-002 -1.2873654250655399e-002
        -6.1157038001440366e-002 2.0866880258235444e-002
        4.4515525850238755e-002 4.6836300364646997e-002
        -5.1890324230828837e-002 -4.4472642650789394e-002
        5.4254893403710291e-001 2.4752541822528742e-001
        4.8317677295881996e-003 -6.7867067964089967e-001
        -1.6153022443954965e-001 4.1181973325406115e-002
        -2.8915268018883819e-002 -5.4349321939985949e-002
        3.7813756265299475e-001 1.0967796683493029e-001
        -2.1534594924579348e-001 -5.6485554820680427e-002
        1.6544675651585323e-003 5.4668497542189630e-002
        -1.2394233480243169e-001 -1.4678070968309935e-002
        1.8628723989485654e-001 -5.7124337416946697e-002
        -1.5700715948270442e-002 -1.8172915035190841e-002
        6.7215426727809446e-002 1.3498121890908462e-002
        -2.2529082159285965e-002 -6.2194792483077650e-003
        4.3106798162898086e-001 6.0311698145131432e-002
        -6.3677263091865799e-001 3.1519495211067777e-001
        -4.3301804607183379e-002 1.8196461013794113e-001
        -2.3936663647284143e-002 1.0355564310732385e-001
        -1.8446741612901790e-001 -6.8311504441483789e-002
        1.9939075350653965e-001 -1.4846931633335192e-002
        -1.8028607617844916e-002 -6.5199830271917780e-002
        -9.8361257651496822e-002 6.9913044343249975e-001
        -4.5410041277906593e-001 -2.8278719972159760e-002
        -3.3150129991216401e-002 -2.1297128087601684e-003
        -3.1398822121928155e-002 7.6328205687391966e-003
        3.3454507467888014e-002 1.7963845391638505e-002
        1.6792932196625410e-001 2.2360793060741432e-001
        -2.7068560985193907e-001 -9.8320441526240476e-002
        1.8241249106322666e-001 -4.4587357136423172e-002
        -1.2212016794613121e-002 2.3490297555469920e-002
        -2.0032040147647798e-001 6.9720652811121067e-002
        -2.2730100347433158e-002 7.2710853162032260e-003
        -3.8366418777025138e-002 -7.0986170869247078e-002
        -8.8259501601625087e-002 2.2260997586830170e-001
        -7.4073950216061960e-002 3.4582544117053866e-002
        2.0623022892169461e-002 -9.5804035740230283e-003
        -1.6111544794918015e-001 4.3544193850356738e-002
        7.7460051247196487e-002 7.6764394734658709e-003
        2.3391428261323993e-001 -2.2292633941031345e-001
        2.2747906290475697e-001 1.7541298952182352e-001
        -7.4708824915812744e-001 3.2202756017883766e-001
        1.2187445027672071e-003 -4.0174249773766359e-002
        3.0602622643282046e-001 -7.1660712964436757e-001
        4.9921121863935392e-001 1.9754636272679864e-002
        2.1867406587373069e-002 -3.2846628795157227e-002
        -1.0292486683145109e-001 7.1108607866875215e-002
        1.5855247236346845e-001 -1.5990806595025481e-001
        1.5491727204180475e-002 -2.5618481344978832e-002
        1.2468441820973727e-001 -3.0521325002383831e-002
        -6.9163147905747069e-002 2.5585836530405338e-002
        -7.1356196976648328e-002 -1.2150680459917340e-001
        8.1880387516974646e-003 1.0387280533065672e-001
        -1.0655279169820836e-001 9.3862464706747847e-002
        1.1715620457570127e-002 4.1362145830628385e-003
        2.8762609953077386e-002 -1.5786865823834990e-002
        -3.9434253977773080e-002 -6.0186149210784143e-003
        7.6442001246007961e-003 -2.8341229718941305e-002
        -2.7353966040446286e-002 4.3308984212121024e-002
        -8.6868260942529474e-002 1.0383893534884430e-002
        1.3337502441092903e-002 -6.9854088999518832e-003
        2.0929247574565494e-002 1.3557508747781182e-002
        -1.1110868110151337e-002 1.0564322406735209e-002
        4.6018636781090999e-001 -7.7070726998983841e-001
        1.5376534571134506e-001 -3.6845598712089318e-002
        3.5500652599368571e-001 -1.6781707107394092e-001</data></_>
    <_ type_id="opencv-matrix">
      <rows>24</rows>
      <cols>24</cols>
      <dt>d</dt>
      <data>
        5.8588792468815087e-001 2.2657525942745110e-001
        3.5649348680774670e-002 8.5547981598180761e-003
        -1.6148869179169762e-002 -4.0730976682442502e-003
        3.0383026850222422e-001 2.7615574218922356e-001
        8.1005207981115032e-002 2.1634422351885960e-001
        2.3618855964273927e-001 2.3865206152296894e-001
        9.2900044393413136e-002 1.0559346073267285e-001
        5.6562759634322161e-002 7.7076926660286871e-002
        1.8186041879008955e-001 4.2073070352106662e-001
        -5.3188706654935941e-003 -9.7549871289656052e-003
        7.8011435301933258e-003 4.8540099523901037e-002
        5.5289999317955509e-002 1.5649490134470306e-001
        1.6744750827960073e-001 1.9627238387859468e-002
        1.4691602280856907e-002 -3.7049756557285707e-002
        -2.8305568865065463e-002 -2.4869381121003821e-002
        7.8140361524740840e-002 2.8467813716825458e-002
        -1.4378473849726020e-002 1.9476761639506224e-001
        1.1088116533299172e-001 2.5961706404593138e-002
        -3.6562238995001084e-001 -3.7842520618344722e-001
        -2.6319605133934287e-001 -1.2617118680498071e-001
        -1.0879377925818720e-001 8.0667116765426705e-002
        -1.8570022326033529e-002 -2.8391306216514440e-002
        -3.5758997508026635e-002 -1.7367939603562338e-001
        -3.3845471807289124e-001 -6.1885057057145809e-001
        7.0869172953712187e-002 7.3425781976901319e-002
        -1.5690844385199677e-002 -1.4381509248518781e-002
        -6.0155920772442403e-002 -2.3142542813442715e-002
        2.7493848825957634e-001 4.7910993396517937e-003
        -1.0531384563996238e-002 -8.7690692745161714e-001
        -2.0886815348528967e-001 1.3730587121365131e-001
        -9.5576164919318390e-002 -5.5759781390983129e-002
        -3.8061409164200762e-002 3.9893694162128042e-003
        7.0643716015974745e-002 1.9939646458313248e-001
        -7.2354661429401695e-002 9.9055883973801751e-004
        -1.4646195849234911e-002 -1.8748809901848358e-002
        -9.5194290097254372e-002 -6.6985677104475796e-002
        3.4414075198993498e-002 -6.1131916851941498e-002
        -1.4213995885983970e-002 -2.0635788157214809e-002
        -6.9625216196389261e-001 -4.1460361420949909e-001
        -1.7010143075206768e-001 1.1746274656306659e-002
        2.2905713962396705e-002 1.9804167025860749e-002
        6.4433532098064961e-002 -2.3699958299528333e-002
        -1.2566798989039149e-001 2.3474295081975467e-002
        9.7202716095954961e-002 6.4283685669629886e-002
        2.6939491635444349e-002 -1.5801495962068087e-002
        -4.2716654990157987e-001 -2.2652082750995037e-001
        -1.0614183236440265e-001 -1.2788326314058657e-001
        3.0660269663011653e-002 9.9206118325351700e-002
        -2.5099480882960479e-001 -3.4189055474328894e-001
        -2.5407734661669332e-002 -2.6363673323205727e-002
        9.5576084897046290e-002 -6.8783662026855097e-002
        4.9744998541914970e-001 3.8873974745483507e-002
        3.2733148511393008e-002 1.4427503835316813e-001
        -8.7780659571559214e-002 -2.2266376338546584e-001
        -1.6112855659172608e-002 7.3335840438120983e-002
        7.1920794455779431e-003 7.1266955139022925e-002
        1.8487091018107552e-001 1.6628869868875681e-001
        2.3530632792033910e-002 -3.1101169481765903e-002
        -5.7742906680141239e-002 -6.1607089921506464e-001
        -3.3791627686536395e-002 1.3648721500739699e-001
        -1.9762890681986156e-001 -3.5466624709008776e-001
        4.0583820725325634e-003 -3.0455998063051430e-002
        -8.4852899469598342e-002 -9.3027188250974752e-002
        3.5612448714278971e-001 7.4658072997341896e-002
        9.9473906775574290e-003 1.2882788924798530e-001
        -8.0539515386281124e-002 -1.6952692570375472e-001
        -1.2577767223696773e-001 -4.5734483654603211e-002
        -2.8950394398263957e-002 2.1816624242201578e-002
        1.0481268345402625e-001 1.5857891369125957e-001
        -2.7934738524162027e-002 -7.5752511069675454e-002
        -3.7390773194427358e-002 7.4973272400342228e-001
        -8.7501427335128584e-002 -3.1705921068031974e-002
        3.3966494406947340e-001 -6.6007213567223866e-001
        -1.4472094735741800e-002 -6.2854184623974769e-004
        -1.5705319520010272e-001 2.7942765895578070e-001
        -2.0113750333192881e-001 1.1777255173410583e-001
        4.2518362885845505e-003 -2.0576091407068745e-001
        2.6867467910718917e-001 -2.2714571444828027e-001
        2.3868532235675705e-001 -6.0181311380802419e-002
        -5.3564753982583375e-002 -5.1371096635967256e-002
        -9.3509536831281131e-002 7.4827205860207233e-002
        4.6383086309898583e-002 1.3985006263538874e-001
        6.0970800047737472e-002 -4.8336118509224930e-002
        1.0483379575602576e-001 -7.9475896162105306e-002
        2.0153085525969619e-001 -2.3006919264491560e-001
        -7.2127028199932951e-003 4.1331643182113392e-003
        5.7011557152120718e-001 -4.0078850479701594e-001
        -2.6907591850351381e-001 5.8535763790066371e-002
        2.6246578088651475e-002 -1.4373053454264900e-001
        1.9809626379020184e-001 -6.1218803901223959e-002
        -3.8572427692122091e-001 8.1701829260068359e-002
        1.5404107643919765e-001 8.9307614465762353e-002
        6.6053824980328163e-002 -3.2786248298875345e-002
        -1.3196683235063865e-002 -2.3973480323633187e-001
        -1.0311852145122259e-001 2.1530300909802104e-002
        -6.9175872159520813e-002 1.2010624029008578e-001
        5.6482202313544130e-002 1.2814326630971436e-002
        -9.5025663310326818e-004 -2.6989905650227554e-002
        9.4766102071178974e-003 9.7978064729638506e-002
        2.7030155738394689e-002 -9.7826160854069297e-002
        -1.8229567648268448e-002 6.1537493589633556e-003
        3.2150656480682115e-003 -3.2813544506287491e-002
        7.8107304918544687e-002 -3.7601637504593910e-001
        5.2461990871383868e-001 4.8969782888585905e-001
        4.2842506449793838e-001 -1.9883103301344510e-001
        -5.1213435079899325e-002 8.2073469267086252e-002
        5.4692154891601445e-002 5.6491853839832264e-003
        6.4068853876842247e-002 -2.6903740211861232e-001
        2.1807040640762457e-001 -8.6709767336166282e-002
        1.8504345660935687e-002 1.6577311790665777e-002
        -2.4097901382150061e-001 4.2410598359495194e-001
        -1.0211326808701703e-001 -1.0493842121267968e-001
        -1.6404631646692064e-002 8.2458620878328878e-002
        -2.9647495719648670e-001 1.6003552838309561e-002
        -5.5489582994802922e-001 2.5211982322079368e-001
        1.2781250126590329e-001 9.4335965970048327e-002
        9.2058503506019823e-002 -5.8660679755547319e-002
        2.3334789567166297e-001 8.3965740774632328e-002
        -2.1420988590995265e-002 -2.1996527109290804e-002
        -2.6296725695015633e-001 2.2246476763457990e-001
        -3.9870539876412214e-001 2.0077518667404426e-001
        -2.2649594907965521e-002 1.0190654192579956e-002
        -1.4287183547302776e-001 1.8432529117730009e-001
        5.9841647596079836e-002 2.1771877090875111e-001
        1.1943984223361376e-001 -1.7372390180054484e-001
        7.2255934500172425e-001 -9.0931973698410606e-002
        -2.2659819617550347e-001 1.2050282305614127e-001
        8.1979180348102740e-002 6.0013551688546378e-002
        4.1915225147627910e-002 -4.3012839893667609e-002
        1.4570290689742632e-001 8.6919911405963793e-002
        -9.4804694451325593e-003 9.3367902383834391e-003
        -1.0199855348143967e-001 2.7699655769773915e-002
        1.8568718427080488e-001 -1.4668500550108110e-001
        -1.7783638784465122e-002 1.2319648139760857e-001
        -2.0297794764249370e-003 -6.8799069723349218e-002
        3.7621402589330805e-001 -3.4123201941833697e-001
        -1.1154647694955050e-001 -1.2145303853484935e-002
        2.1498975159945474e-001 2.1999173539550923e-001
        4.3630496015253505e-002 4.8674537415246644e-001
        -4.0072864193664549e-002 -3.8708836581423378e-002
        1.8129244454215238e-002 -4.8500866139441939e-001
        -1.1194130374766616e-001 7.6922669760976599e-003
        4.8812166366926410e-002 3.2517948422353241e-002
        4.1305026985171729e-004 -2.5508459192405852e-001
        -2.2709980662612672e-001 -1.6531572659835816e-001
        -2.8191401464613294e-002 2.5412019906200824e-002
        1.4266999953668247e-001 1.7309843752916765e-001
        -2.5471636259788560e-001 2.1431832096771866e-001
        3.2495490632538504e-001 5.3241808482523419e-002
        -1.0332308765447001e-001 3.5677969271758075e-001
        1.0778857591452096e-001 2.7001167444572827e-001
        -5.7113060438362499e-002 8.1043768162258015e-002
        2.0229123703036547e-001 1.3482861138271549e-001
        -4.5764471718241184e-001 9.2560754046791316e-002
        1.5135007726027966e-001 -1.2369779304150176e-002
        -2.9706738476292521e-001 -1.7133961135795053e-001
        1.2733543096118682e-001 2.8110990706516054e-001
        -1.0704295033362539e-001 -8.5462905894368793e-002
        1.4024184301673953e-001 1.6332482139913104e-001
        2.5052092638038610e-002 -1.1179783320937077e-001
        -2.8504631971831288e-002 -2.0159005274697295e-003
        -4.0757571022813244e-002 -6.4842951607729749e-001
        -8.3239387981201271e-002 2.7607438694228292e-001
        1.1618931976412300e-001 -3.2607268871456950e-002
        -1.1233253713374093e-001 1.7397541202981473e-001
        -4.6306949994806595e-001 1.2123364459059689e-001
        3.6008072034167650e-002 3.3750651178644404e-002
        6.7843181098489122e-002 -1.6379449366487139e-001
        -9.0365712878364618e-002 -1.0133416651824462e-001
        -4.0838525151740628e-002 1.2007052576052458e-002
        9.8323148838338550e-002 1.8456516482091642e-001
        3.4392649245088024e-003 -5.4289278381377370e-001
        -1.2912532707538463e-001 4.4523790232568076e-002
        2.5345285929548600e-001 2.4891522045444953e-001
        -2.2150321903750403e-001 -3.0157813556232249e-001
        -8.8834444508562496e-002 -1.4053064713725988e-001
        9.8595631664531933e-002 2.4270646442379645e-001
        -3.3542262874072837e-001 1.4356493455462147e-001
        5.7575821065174004e-002 1.2428274311445508e-002
        1.8892278881801297e-001 2.9641691101170692e-001
        1.7670200827817395e-001 6.2327431875865293e-002
        -6.3926336389221836e-002 -1.3620836549932697e-001
        7.4106275398858723e-002 1.4608372431743222e-001
        1.7276883010500074e-001 2.7391436982574524e-001
        2.6884012918678241e-001 -2.4014248367577470e-002
        -3.4573393823089868e-002 -1.2774115596980651e-001
        -5.2920203119882263e-002 -2.9151027791549694e-001
        -2.8244071485202893e-001 -1.3487662480495158e-001
        1.5502871123737907e-001 -5.6375697021041504e-001
        -2.8406901804388240e-001 1.2480475834091138e-002
        -1.1245253974078061e-002 2.0553517787061330e-002
        -3.0336488862687798e-002 3.3205117150803526e-001
        -3.1209114432039990e-002 -1.0241407160521922e-001
        -5.3424076509171629e-002 -4.5064130676914074e-002
        7.9690912868840696e-002 1.3469988024712976e-001
        2.1506251643581145e-001 2.1678202460371948e-001
        -1.4912694407624921e-001 3.4569429540743712e-002
        -1.3265621327739186e-002 2.2957941786509309e-001
        -5.3004641580131913e-002 -1.1683452451875299e-001
        3.2367281700531647e-001 2.4757821965422425e-001
        -7.2537843089981058e-001 -7.2707095215085324e-002
        -2.3482301354356483e-001 -2.4236728123991683e-003
        -1.5251026788935595e-002 -1.6342966172606960e-002
        -6.9792921385305434e-002 1.2287114297173099e-001
        7.6336594348203422e-003 5.1635166866679454e-002
        -6.5764326972456169e-002 -1.2826283109282999e-001
        1.7914648207404696e-002 2.2827205388692194e-003
        -7.9879121803506023e-002 5.7382533122768767e-002
        -7.0422685819547537e-001 -5.9603066064364751e-003
        1.0186438264193749e-001 -8.0139700201208836e-002
        2.4497339197407222e-001 3.9062755639430205e-004
        -1.5548843713165003e-001 1.0531861074478500e-001
        1.7624570609955745e-001 -1.5160085799676627e-002
        -8.1959542574163685e-002 -4.5045126102355185e-002
        5.2851193419000020e-002 1.0960889963944693e-002
        -5.3005328868160240e-001 1.8585069170608912e-001
        9.5410487735894264e-002 3.7287008713260586e-002
        -1.0042816178894719e-001 9.6097288958007274e-002
        -2.4884322573263035e-002 -6.0198821409715400e-002
        5.3903724852565713e-002 -4.1798407698612050e-001
        4.5975164119189355e-001 -1.5247762700764061e-002
        9.4278990307737592e-002 -1.3220493910951700e-001
        2.8685365262788659e-001 -1.2376623190167614e-001
        1.9688305812744139e-001 -6.9260246881972215e-002
        -1.6048543190382841e-001 5.3756000418184707e-002
        9.2700320520819834e-002 -1.4727769943722130e-001
        8.7324540835476305e-002 2.6149883151311126e-002
        -5.5812255050418225e-001 1.7450874548810169e-001
        -4.1354881340503025e-002 2.2383296354646934e-002
        -2.2686456617180373e-002 5.4455095097175978e-002
        1.5954016463713340e-002 3.9296273551482502e-001
        1.2530435985700914e-002 -5.5711686854355356e-004
        -4.7900923655051941e-002 -1.7363147627264913e-002
        1.6941320496106981e-002 -2.3931161730777533e-003
        7.6361632296081993e-003 2.4177414725934298e-003
        -2.5695723427012904e-002 -1.5319909864192864e-002
        4.1842475692123529e-002 2.4225570613853768e-002
        -2.3025782120547920e-002 -8.6958828730916149e-001
        2.1716177618354529e-001 -2.1833707215464369e-002
        1.5225282253988065e-001 -7.5899992545103726e-002
        -2.1608515307429868e-002 -2.9519076309787354e-002
        -3.0248900247559073e-002 2.2675111605314524e-001
        -1.8288228242543218e-002 -9.0259418167926972e-002
        4.0332475514070813e-002 2.2925848466828500e-001
        -1.7103989726232041e-001 1.5711968898363089e-002
        -5.2997921923668347e-002 1.7282527220428039e-002
        -7.4226487570789326e-002 -7.0230263802806780e-002
        4.7007956733108697e-001 -6.4660128959620322e-001
        1.1122213581305504e-001 -4.7408240036403169e-002
        -2.2951271160222605e-002 8.1436023858056220e-002
        4.2027666787806328e-001 -3.0252801722077581e-002
        -4.7109591045247062e-002 -9.3114962928417450e-004
        -2.3284849226469503e-002 -2.4495362283855900e-002
        -2.2457745379734848e-001 -2.6754873742752827e-001
        2.8636727927324589e-002 1.8646034289240565e-001
        -1.9762871782420716e-002 3.1223048218357160e-003
        -3.1686266314177466e-002 1.3117195536464669e-002
        8.4610014128938000e-003 1.3175180106792447e-001
        1.3335000387512264e-001 3.4483816573651495e-002
        2.8254750564009584e-001 -3.8166526983970517e-001
        1.0900659342957957e-001 6.8541519188919560e-004
        -1.8462701075891343e-002 -1.0222598068799404e-001
        -7.3829124216536446e-001 1.2046577854839263e-002
        -3.6456602280089366e-002 -9.2474135888833520e-002
        -9.3110294578195515e-003 2.5516448733456962e-002
        6.3828780249633277e-001 6.1393149109563683e-001
        4.5013168710133548e-002 1.2452563053660609e-001
        1.0216186134337907e-002 3.5771511917177846e-002
        -5.9986349080125345e-002 -1.8918144207764817e-002
        4.3631363838574598e-003 -1.0199291950595366e-001
        6.5912184000990290e-002 -6.3200217747033799e-002
        1.1589213075552364e-002 -2.4183730256062061e-002
        1.4136473240947243e-002 -1.8021068961588387e-002
        -1.6829754471294775e-001 -2.1381089674785123e-002
        -3.6503818970794394e-001 -1.0084960632243869e-003
        -9.2826704765101645e-002 3.7550325433619407e-002
        1.1705796133898660e-002 2.5721758460148670e-002
        -7.0811069017524420e-001 6.5019833816846373e-001
        -5.9183285970404826e-003 2.3307145381238309e-003
        -2.1325356987125337e-002 8.3200327742133443e-002
        -4.8523811024130246e-002 1.9770885432493512e-002
        -4.3638924725875258e-002 -2.4400965900756501e-002
        -2.1358076706056373e-002 -6.0676609490546964e-002
        -1.2459104506051445e-001 1.2915739159347894e-001
        2.2476882835295767e-002 1.4077908383605932e-002
        1.3286504744222417e-002 3.4186336254193400e-002
        -1.4751009904592011e-001 1.3882532796074940e-002
        4.4909391901551993e-002 4.2537427676296228e-004</data></_>
    <_ type_id="opencv-matrix">
      <rows>24</rows>
      <cols>24</cols>
      <dt>d</dt>
      <data>
        -1.3788356398730228e-001 -1.1803104799416160e-001
        -4.2464968402081714e-002 1.1617935396195865e-001
        8.8882325697613965e-002 -3.8001416087246602e-002
        2.5842740182563390e-001 1.5487313529071239e-001
        -8.9782626056330115e-003 -7.5319427215958107e-002
        -9.7065497642026766e-002 -7.6464044426138550e-002
        3.7070286773355271e-001 2.8023377660404519e-001
        2.1687065866107422e-001 1.8648782874853917e-001
        1.5535595435724411e-001 1.9191489029195757e-001
        9.0513309205938752e-002 6.7575903567698103e-002
        4.1010329281286138e-002 1.0590900098079264e-001
        3.6246612714702542e-001 5.6111568494647113e-001
        -2.4321451329688273e-004 -1.4370224799835871e-001
        -4.5806535138633586e-002 3.2927780188231509e-001
        4.1280916093439601e-001 2.8111088992157357e-001
        -3.3103338388088055e-001 -3.9826639422378698e-002
        1.4235858385552706e-003 -4.1755861869101928e-002
        -6.6632139324587447e-002 -1.2384469076361736e-001
        1.5162207264072183e-001 -3.4970478451683490e-003
        -7.3151471239157217e-002 -1.1692505973384990e-001
        -1.1002307262537392e-001 -1.3057456994659736e-001
        2.5261681156836713e-001 2.9368397572902138e-001
        3.1303854778401585e-001 2.7004110759892958e-001
        1.8581125994932610e-001 -2.4497958489683075e-001
        2.7222485873090679e-001 1.7945050476161478e-001
        -3.1329050928192642e-001 7.5071679885042042e-002
        9.3648348094450135e-002 8.9171270285542739e-002
        -1.3581180233828197e-001 -1.2208418342209684e-001
        4.0034535163561334e-002 1.3372075125061464e-001
        1.5055171336416778e-001 9.7390353061763857e-002
        4.5353656629067894e-002 -1.2581273341232416e-001
        -1.5471848587855791e-001 -2.0311463250351502e-001
        -2.1586842806323769e-001 -1.7709940437302379e-001
        2.0240575199492680e-002 5.0497656849335840e-002
        6.8018273911016808e-002 -5.9817120762442409e-002
        -2.7285315951944050e-001 6.6448714368983131e-001
        3.2669148436255130e-001 3.6169181536287509e-001
        -1.6812921775627345e-002 -1.3319859278028018e-001
        -3.6528750978640896e-002 5.9912956023571405e-002
        -4.3491469924395665e-001 1.9674806330599998e-001
        1.3402074692764238e-001 2.0203936518992432e-001
        2.5671397875389640e-001 2.4063425514205830e-001
        -1.7458727982324593e-002 1.4179088750159138e-001
        2.7768582894208549e-001 2.1321122815424595e-001
        3.9265996998595801e-002 9.2489409526722507e-002
        -1.4885197812234979e-001 -3.5406034996702883e-002
        -1.2675468204684998e-003 1.7066248089492617e-001
        3.4579188341252687e-001 -6.2212907149844378e-002
        -7.2290292820094901e-002 -1.7645878126885248e-001
        7.4175555494032264e-001 -3.3697824745684460e-002
        -8.4888951399044635e-002 -8.3312036302489012e-002
        -4.9083943530904123e-001 -2.4176475242717002e-002
        -2.0099844381624005e-002 -3.1955237190790194e-002
        -7.9726469850514167e-002 -8.5594225834737081e-002
        3.6442616463171373e-002 1.6448795020506820e-003
        -9.5496862893434138e-003 -3.4684126983937399e-002
        -2.9883062680793434e-002 -1.6090616045795092e-001
        -3.0176087299914368e-003 -6.4451383564845449e-002
        -7.8365041867071272e-002 -3.3526352962332868e-002
        -3.5201501214821365e-002 3.1537404249606443e-001
        -1.1458303791170506e-001 -2.6723673814563365e-001
        -5.3375785236013928e-001 4.8317273439220619e-002
        -1.1850938962770985e-001 -2.2162519225908528e-001
        -5.0297354393343996e-001 8.4626316943746966e-003
        2.7552016884953227e-002 -1.3073209251829013e-001
        -1.9116583129952153e-001 -2.2647287881222811e-001
        -1.6420574975836721e-001 8.7352712791778656e-002
        1.9970715116656726e-001 2.1617599448284586e-001
        9.2502644564687403e-002 -8.3145173153706758e-002
        7.2002192604855464e-002 -5.3825559313462779e-002
        -1.6848970757878445e-001 -1.5964399370101295e-001
        -8.3384652538740708e-002 2.7098501399836983e-002
        1.7902728027887771e-001 1.3527786357367944e-002
        1.7722445858796024e-001 9.0467208364393495e-002
        1.8251122913247605e-001 2.4251574155686709e-001
        1.2093042911097382e-001 -2.7379238701630643e-001
        4.0818661159208181e-002 6.1265467248362571e-002
        2.5700339966256133e-002 -2.0700540437638554e-002
        -1.7864201315905945e-001 1.4059459717902134e-001
        2.6318407692085577e-001 5.2202186357694336e-001
        3.0298443362870159e-001 -4.7198576905292097e-002
        1.0971401472401393e-001 8.9033753346773520e-002
        1.5414983992743975e-001 -3.2940823054884709e-002
        -4.5502938887838940e-001 2.4721180417671733e-002
        5.3875007714703171e-001 -1.0738593766617180e-001
        5.6590295308499260e-002 1.2231705675820995e-001
        -1.2570267911362512e-001 -9.7865395909250336e-002
        5.8745715750011536e-002 7.8184450982126188e-002
        2.0973044034766164e-001 1.3455879464727347e-001
        -3.8837767036545547e-002 -2.1692638223218605e-001
        5.5194972264797515e-001 -6.2882319209858095e-002
        8.8702756562441379e-002 -5.5305869902812520e-002
        5.2836681432472917e-003 2.6878974273742139e-004
        1.8771384094975394e-001 -1.0221958193905390e-002
        -1.8133290198966262e-001 -3.0533348425028456e-001
        -8.6752512243852581e-002 -2.1428240462523387e-001
        1.2570368694568962e-001 1.3948654043490033e-001
        1.1763670373191884e-001 3.7329221508009020e-001
        -2.3432238715044287e-003 -3.3669993766529194e-001
        8.2716817369868662e-002 2.7321591426900504e-001
        4.2871096337138107e-002 6.0550410048476493e-002
        8.2162693118510557e-002 4.3188978303222186e-002
        -4.8849995608028524e-001 2.0429649649866893e-001
        -4.7784184622030754e-002 -2.4525314798298942e-001
        1.8795582180605691e-001 7.5794504421270769e-003
        4.2959108968945925e-001 1.3901931409637736e-001
        -2.1360222043562666e-002 -1.1537774990485758e-001
        7.0013278965625328e-002 4.2935227472606072e-002
        3.0714818510178427e-001 -2.7119213500667938e-001
        -3.3169608541564463e-002 -2.8297284559423802e-001
        -5.4847668592333622e-002 3.0217069871648705e-001
        5.0352653717144508e-002 2.8701341326008556e-001
        6.9339858815805094e-002 -6.6427258602278312e-003
        -1.2749116648660069e-001 -3.2259721210754905e-001
        -2.6158073968872914e-001 -1.5544549574795538e-001
        8.1449415854320834e-002 -3.1986154005878592e-001
        3.6264886203448971e-001 4.0716475353540657e-002
        -1.3702244585932158e-001 -9.0172999878200530e-002
        1.9876512108081537e-001 1.7535228049750523e-001
        1.8669287665736795e-002 1.1967577731788938e-001
        3.6806655402481026e-001 -2.9019022594311134e-001
        4.2462392927760925e-002 -2.9628030358785390e-002
        2.9246575307582602e-002 -1.2054036828334296e-001
        2.0747913530316348e-001 -1.7505776123976430e-001
        9.4950360006809953e-002 -4.7276626566886198e-003
        -1.9112954807838381e-002 -1.9718511976197561e-001
        -3.2264719271982067e-001 1.7170207239954330e-001
        -7.2957302281807510e-002 2.2768112189586376e-001
        -5.6362187107778383e-001 -5.3346225766150245e-002
        -6.1435129665737880e-002 -2.4504677597699635e-002
        -1.3669982644772055e-001 2.3776433055608892e-001
        2.1859906464168755e-001 4.0418874465576834e-002
        -1.5532466414856951e-002 -8.2111356165575689e-002
        -3.1098647769030215e-002 -5.2486192024820411e-002
        1.0187277505525702e-001 -1.0432234356110824e-001
        -5.5742066658921577e-002 4.3164508979613644e-002
        -1.4473250656291248e-001 1.3142603730022406e-001
        2.5990996491477203e-001 -2.1064309865714967e-001
        1.1781946924588277e-001 7.0996958646737529e-001
        -1.6560994972769033e-001 -1.8586376557805592e-001
        1.1748636360907932e-002 -1.6300213299132765e-002
        -3.3223230068349563e-001 -7.5880471260021093e-002
        2.3122374809894980e-001 -1.1945347722220909e-001
        -1.9738678171845178e-001 -9.8862333729206775e-002
        1.6820106876268412e-001 5.5814687382692831e-002
        -4.4358354312275097e-002 -1.4635173121697648e-002
        1.4299050913436775e-001 -1.9977279492264705e-001
        -3.9392527929828482e-002 -1.0503797596119320e-001
        2.3076985144590070e-001 -1.0315246800952979e-002
        -3.7185449915023039e-001 2.0028743091172521e-001
        9.2578130057397998e-002 1.0503830130668476e-001
        -5.7581971893134742e-001 1.3060702765011256e-001
        4.1433463324551656e-001 -1.3708846025509996e-001
        -1.2267692623833536e-001 -9.1007752429565228e-002
        -1.2690647042419004e-001 2.4972367037258703e-001
        3.4849357746338301e-002 -2.9495515472515339e-003
        -3.3976823945485415e-002 -1.3485250249884881e-001
        -4.6934383745248470e-002 1.2014958963692363e-001
        -1.0290570189164112e-001 -1.1092108327405764e-001
        4.8380760330849877e-002 -4.8953504223174393e-001
        2.2386028772684825e-002 6.9374376881062771e-003
        3.6870189234872658e-001 2.8007758404301655e-002
        7.7255223953104121e-002 1.9937246609837953e-002
        2.7703348574410236e-001 -3.1986991656059427e-001
        2.6246537171192713e-001 -1.7988452729187887e-001
        8.4616800030909448e-002 -2.3590991217850601e-001
        -2.0750030982959788e-001 4.0701881374392734e-001
        5.3185065583298309e-002 -2.8792047587041503e-002
        8.2479654337107619e-002 2.0292566478380250e-002
        4.4332316615147867e-002 1.8705996860678209e-001
        1.4571111880434442e-001 -2.5642550504571504e-001
        7.3780116201970017e-002 -1.0054312464478612e-001
        9.3433637198114816e-002 -1.3116361227038306e-001
        -1.7793036947669585e-001 9.2944585814029562e-002
        -4.6184751957526714e-002 -9.9980118984974053e-002
        3.5026190971267024e-001 -1.8085200827150538e-001
        4.7946263566864065e-002 -1.7824550126911709e-001
        -5.9945373711698102e-001 4.5128713822693772e-001
        1.8075091467263219e-002 -1.3674180815235695e-001
        5.7876718663164899e-002 -9.4267937948767071e-003
        6.1897701412668739e-004 2.5454974633314920e-001
        -4.4609039066386769e-003 -2.1181088309891524e-001
        1.2852379094934019e-001 -4.5262527746581113e-002
        9.4531301484579902e-002 -6.5255839578970687e-002
        -5.3387897235865987e-003 5.1703256312166913e-002
        -4.8040273642232728e-001 8.6809504522852188e-002
        6.7672404365992696e-003 1.9099796642739658e-001
        3.2524059866426019e-001 -1.7057609090747447e-001
        -1.6080834151970191e-001 -3.8573761910551346e-001
        2.0830079696620724e-001 -3.9480986140404550e-001
        2.3957778981164815e-001 -8.9627201455014655e-002
        7.1278052237649492e-002 -4.1263399694843675e-002
        -1.7372312395121348e-001 3.5409435713884779e-001
        3.3654950415120490e-002 2.0953541752476540e-001
        1.3177492169605154e-001 -1.7736902434148097e-001
        -1.2761984089715005e-002 1.0847365244889379e-001
        3.1481884576189084e-002 3.8127220080507274e-001
        -1.8898313404370992e-001 -4.6739150347797370e-001
        1.0943414704136008e-002 -1.4124771904750388e-001
        9.9187128535848074e-002 -1.7329658969338825e-004
        -9.3190464778220294e-002 2.1284181478421985e-001
        -1.3620355610199356e-001 -1.0728741593543406e-001
        -1.3491197355264853e-001 3.7851843423927223e-001
        -2.5035351623146090e-001 2.3769201810063104e-003
        -2.8688628713141894e-002 9.7885141495368644e-002
        8.5406936482309102e-003 -2.0810053191686315e-001
        6.2273946266169992e-002 3.3692303648234245e-001
        -5.0037607774331264e-002 -4.1642604695810291e-002
        1.5815761668334269e-001 -1.6200422006430309e-001
        -2.0918228476166040e-001 9.5637403834717721e-002
        -1.9156362133681080e-002 3.7419271222166867e-001
        9.8676446753081640e-002 -2.8921386191609416e-001
        -9.4428805095759127e-002 2.3142571148770436e-001
        1.1251902801832488e-001 2.8501277895692412e-001
        -5.3372346869700615e-001 8.1667076631613142e-002
        -1.9666875484612445e-001 -8.6904066917912193e-003
        2.0627680296774337e-001 -1.6988271284389472e-001
        -2.3905572941434888e-002 2.0879932488294223e-001
        -3.5641344424903232e-001 -5.0168890426996147e-002
        -1.2562948133756538e-002 2.2077166861497147e-001
        -4.8500355998729039e-001 -1.5888952372994043e-002
        -2.3593993490528450e-001 3.7364618445047809e-001
        9.7646831659475450e-002 7.8212822858969397e-002
        9.5347739256572084e-002 4.0184940236001783e-003
        -1.0079511468772748e-001 2.6546447134176591e-002
        -2.5886446758243774e-002 3.8404843131151514e-002
        8.5721717966178557e-002 3.7462731620120049e-001
        -2.9682665211765002e-001 -4.0581488510758289e-002
        1.9298014176401018e-002 -2.0247689391411150e-001
        1.9285085108579743e-002 -2.7594029587441143e-001
        5.1804239204380143e-001 -3.8613364482718282e-001
        -1.1009336170773022e-002 2.8323227175221971e-001
        1.5691354268093541e-001 -2.5295415747435840e-001
        2.1106863716460228e-001 2.1050680760837576e-001
        7.7090245115182990e-002 -1.3838121134793185e-001
        1.3644888619321857e-001 -2.4288503439428765e-003
        -8.7185309095970415e-002 1.2732564103080796e-001
        1.0906420731629503e-001 -1.1190027422685139e-001
        3.8192951434207034e-002 1.5499107294400505e-001
        -2.9808182130048455e-001 -2.3583999095135408e-002
        2.6839895328266511e-001 2.3994509470643327e-002
        1.4817970396671813e-002 4.2422218792416769e-002
        3.3658691295888216e-001 -5.4777388801305039e-002
        -1.2915956841096449e-001 -3.2643148915095133e-001
        -5.0910822578087711e-001 -5.3989711804763106e-002
        -1.3049298585402322e-001 6.2262105463101935e-003
        -7.0456191161963722e-002 -8.3043586640635894e-002
        -2.2647743930539082e-003 -1.0493276505134327e-001
        8.8923669637007943e-002 5.0142595665433387e-001
        -2.2426567668989254e-002 -2.1343593404417183e-001
        -7.4807333916712584e-002 -2.1674405082119635e-001
        1.5954808115080005e-001 1.9064888263309366e-002
        -2.8180328498908426e-002 -7.8814954230003273e-002
        1.8978913853663803e-002 5.0426517275519489e-001
        1.9676649835793322e-001 3.6231051337213249e-001
        4.8402079063325561e-002 2.8969677299318608e-001
        9.6801267732933488e-002 -1.6797454163025344e-001
        5.0018387612166891e-002 1.2986862802695917e-001
        -6.2743515062885877e-002 2.1675556932175963e-002
        2.0697072524586815e-002 1.9987950783095752e-002
        -5.2853744009411820e-002 -1.2962671790857860e-001
        -2.5337487870347958e-001 -4.9661207295010545e-001
        -2.7188731960932816e-001 -1.2431816417083176e-001
        -9.3793189867010327e-003 -4.9789797278182238e-003
        8.3737927737351545e-002 1.6617553854534933e-001
        -1.5382669746541910e-002 -1.9892745027397993e-001
        2.1430607193861162e-001 1.4267338726921038e-002
        8.5563897297971536e-002 2.2143432178015890e-001
        -5.2750068377249604e-001 -7.0993539069207134e-002
        1.4538381313299156e-001 -2.2388005326264812e-001
        4.8938244088979822e-002 -5.0440800744756466e-002
        -3.0365536533033709e-002 1.2520912124108735e-001
        1.1774626393821859e-001 -4.9755896494160956e-001
        4.5074059141620472e-002 1.6579672126085090e-001
        -3.8671972236127328e-001 4.3643330061982739e-002
        6.6761100402201692e-002 -1.1056420375192904e-002
        -1.5369566622304534e-001 -4.2242352018823959e-001
        -3.3544181651965786e-002 -8.8994343208187651e-002
        2.0883692995777881e-001 4.8711365426956178e-002
        3.0974152402251178e-002 5.0295239143067695e-002
        -4.1710708270512771e-002 7.6213576092011392e-001
        -6.7518515028635387e-002 2.8374368613336970e-001
        -5.7946242110683610e-002 -4.0932381722059881e-002
        4.8712178583053510e-002 -2.3622149885049699e-002
        3.2330473310149481e-002 -5.5256594960097882e-002
        5.2965791177396766e-003 8.1263771735238466e-002
        -1.8596350997867619e-001 -1.1816561155585768e-001
        6.7200441737998842e-002 -5.0387045462115421e-004</data></_>
    <_ type_id="opencv-matrix">
      <rows>24</rows>
      <cols>24</cols>
      <dt>d</dt>
      <data>
        2.4198891357699373e-001 2.0709676193895554e-001
        1.2251978377339447e-001 2.6525160823558804e-002
        -9.8771615639451055e-002 -2.0853229578343169e-001
        -1.3282246818015405e-002 1.9212798809250319e-002
        5.7686008558697634e-002 9.3519156396727254e-002
        1.7593510971958864e-001 3.2503641622665752e-001
        4.1025004376632140e-001 3.3152571307950029e-001
        2.4856947270293567e-001 1.5211682740332144e-001
        8.4385899357533198e-002 2.1675846717536845e-002
        -1.6147972897995927e-001 -5.7488044672354306e-002
        3.2843231847495422e-002 1.4656701008730427e-001
        2.9915953394756883e-001 4.1012933315617056e-001
        4.3069810824547899e-001 3.0346848777320989e-001
        2.3996905207230063e-001 1.7501574792165184e-001
        1.1685869158636401e-001 4.6670965794361988e-002
        1.1097920089382658e-001 1.2497843255709423e-001
        1.7193543773077249e-001 2.6170140092703670e-001
        3.1947022786933682e-001 3.6346545741117670e-001
        -2.4621975729054865e-001 -1.9586995814211980e-001
        -1.2202232447751969e-001 -5.6047471467514286e-002
        5.4605521322083125e-003 5.9153303946940072e-002
        1.4444889459302529e-002 -5.9365879429292591e-002
        -9.4864280030852163e-002 -1.4581813116900222e-001
        -2.0756492448270011e-001 -2.4612034524952231e-001
        -9.1432292458490647e-002 -1.3561892323833369e-001
        -1.2447452146639298e-001 -1.9705353629484618e-001
        -3.2547554676399082e-001 -4.1177061344097354e-001
        3.4652058992861712e-001 2.6839346451306301e-001
        5.5439928643146362e-002 -1.3283654843164544e-002
        -1.1320340878992903e-002 -3.5721821030049054e-002
        -6.1571272719118719e-002 -5.4214402304936675e-002
        9.1743706333275263e-002 1.7787262349334340e-001
        2.3552541883734152e-001 2.7565648534314746e-001
        -3.2206808092766676e-001 -2.3994262803809410e-001
        -1.8980586656835638e-001 -1.6373982287181210e-001
        -1.5797982690207904e-001 -1.3902878454784579e-001
        -8.1891387708408328e-002 -5.2273712324056552e-002
        1.3684863402709500e-002 1.0667308160981842e-001
        2.2653451048727316e-001 3.1875131182688182e-001
        3.5602513737156377e-001 3.3551511130428485e-001
        1.6560327613224132e-001 1.0726327574547181e-001
        3.0976232969131344e-002 -1.5725224214688363e-001
        6.2621991936221741e-002 7.8408592961803456e-002
        1.6124061145350724e-001 1.9441868588553851e-001
        2.8415936708152023e-001 3.8037353953820963e-001
        2.8520624428108216e-001 2.3557823308873843e-001
        2.0546878912437663e-001 1.7397538057610487e-001
        1.0679649155164378e-001 -4.5884708755699374e-002
        -3.9971337645855545e-002 1.9046926510335956e-002
        -5.8846652389860733e-002 -7.6485690069467760e-002
        -1.5040384912333704e-001 -1.2917892936086145e-001
        7.9142687100745967e-003 5.5907700508566902e-002
        1.5668936752231713e-001 1.5538268726566229e-001
        6.5053018265866597e-002 -3.3118352707632776e-002
        5.1781975533227598e-001 8.7066547899818224e-003
        -4.3077594098969985e-001 -3.9846695445999175e-001
        -1.0828740022528528e-001 1.5512958762940218e-001
        -1.0675114124784633e-001 1.0680305288595211e-001
        2.6523681187404319e-001 2.1765241884949427e-001
        -5.1806371351552943e-002 -3.1725008934759169e-001
        1.5503739815089834e-001 -7.8753739719154461e-002
        -4.4144372767037171e-002 -3.5633470134907620e-002
        4.8226357544310608e-002 1.1461034451060709e-001
        2.7174937618025463e-001 2.6087907173524716e-001
        -3.0834686326918193e-001 -3.2391927623161615e-001
        -1.3643326125642732e-001 2.4221680856935829e-001
        2.1980029476240220e-001 -3.3874747205560191e-001
        -3.2889166113046209e-001 -1.8693827970965937e-001
        2.1010352964544118e-002 7.8660379407084619e-002
        1.4891149274332693e-001 -2.6205302550931314e-002
        -1.3346795700185785e-001 -1.7513381880338033e-001
        1.2969265263464327e-001 3.6182553169648835e-001
        4.0093430556436893e-001 3.3509901549313319e-002
        -1.1928064105353318e-001 -2.2096855937601509e-001
        -1.0825779266571729e-001 7.9152404971657167e-002
        1.5073522788832919e-001 -2.5331966936932818e-003
        -2.7401306299064798e-001 -3.2512709356260988e-001
        -1.6181407199753547e-001 1.9178724165858488e-001
        -1.5690346449951213e-002 2.0941159707485550e-002
        1.7004270658846293e-001 2.3472669235952190e-001
        -9.8484055997161812e-002 -1.6092255286354315e-001
        -6.2543856745437443e-002 1.5889901359222711e-001
        2.1845368562332745e-001 2.5214904332170562e-001
        6.5876026535089574e-002 -4.7488105479663123e-001
        4.3878963233789775e-001 1.8023525158301534e-002
        -3.9109962931711389e-001 -4.2700925756475216e-001
        -1.9580939083707496e-001 2.3717486014683459e-001
        -7.5188044498259290e-002 2.5476013831135940e-002
        2.4658850060353296e-001 2.6020212572632512e-001
        1.0277955269265743e-001 -3.4652284975867348e-001
        6.0958994471890814e-002 -1.2853470863513675e-001
        2.4090806566756738e-002 3.2779239851103655e-002
        -3.8890673485798350e-004 -1.2634374645112331e-001
        1.1649342167348951e-001 2.4365865215342057e-002
        -9.9697230091875033e-002 -1.2767956295286759e-001
        4.1435056523227293e-002 1.7837301558273796e-001
        -6.8052436549147041e-002 -6.7385987514454904e-002
        -2.1834111637820786e-001 -2.0790903944149541e-001
        -1.6963928541702714e-002 1.5118159881166399e-001
        -1.8094014455121968e-001 -4.6559686798296071e-002
        6.9165264850651609e-002 -1.6830240745965891e-003
        7.6303679258971260e-002 2.7499550269938927e-001
        -4.5603258330542784e-001 -7.7541328095870360e-002
        -6.0033813096500806e-002 -2.2557267991892566e-001
        3.3831279730665589e-002 3.7019726205620063e-001
        -1.6189536073975225e-001 -2.0110117148410492e-001
        5.7522673430280627e-002 4.0122774936841626e-001
        3.3070762790796754e-001 9.3160199661866602e-002
        1.9001373146815440e-001 -6.1476547207934421e-003
        -5.4250896525469279e-002 -1.5571074678900398e-002
        1.3035356569998371e-002 3.3253565007455001e-002
        1.2744576991934606e-001 2.4261803182940009e-001
        1.1612242795408656e-001 -1.4152345559461071e-001
        -2.2519068593425537e-001 -1.3336981881174395e-002
        -2.0453662526772873e-001 6.2856969651407446e-001
        1.0350908190852089e-001 -4.2026129765894660e-001
        -2.8988385325621224e-001 8.9620789493815425e-002
        4.1395429493520916e-002 -4.5795653549286275e-002
        3.8743443927439093e-002 -1.5519556211014146e-001
        -2.0863654086036193e-001 1.0309037661966053e-001
        -1.8856339007039349e-001 1.6955459627242209e-001
        -3.2390807501688754e-002 -1.5355868079846410e-001
        -3.1683205736761555e-001 3.2147722285366542e-001
        5.7548081333593078e-002 -3.6986241033636602e-001
        2.5545517355617588e-002 -2.1604343762450299e-002
        -7.9510449053874263e-002 3.3065910444749502e-001
        5.0965167218127987e-002 7.1904525075429503e-003
        3.9170933921404257e-002 6.0242344515151841e-002
        1.2833152679398882e-001 2.0910953391853601e-001
        -2.2742132756938659e-002 2.5203357787371461e-001
        1.3100334310149186e-001 -1.1176354574464521e-001
        -4.9741333509335278e-001 2.0329605111389704e-001
        -1.4293948775782225e-001 5.3756212605858548e-002
        -2.7136951728980861e-002 -3.4156599490510191e-002
        -2.1292904665962709e-001 2.1907245747836313e-001
        1.2475633684041330e-001 -2.4566079013194292e-001
        -1.8306502427175081e-001 7.0808027205770008e-002
        1.4284357454865676e-001 9.1106182302472014e-002
        9.3487772034469743e-002 3.2290359284206493e-001
        -9.7893525178085802e-003 -1.6150296032392786e-001
        1.6883235604211885e-001 3.5515165398832108e-002
        2.6208535174197539e-001 -1.0751749698931085e-001
        -3.7554102995453220e-001 -2.5975687636720002e-001
        3.7821104736387801e-001 -3.7087859344864205e-001
        1.6276934782384209e-001 8.4110053009463975e-002
        1.4576565661705934e-001 2.0660370592066757e-001
        -2.3431468544967574e-001 -1.0323359761955528e-001
        4.7002570562242302e-001 -4.2717185153236598e-001
        -7.4003839257631876e-002 7.7501877990216475e-002
        -4.1930871009461634e-002 -3.1007761045134180e-001
        -1.0253188853360690e-001 -1.1741785709727107e-001
        -1.8026382662802948e-002 1.5156709722573963e-002
        -3.6156892001894569e-001 2.2332813485224892e-001
        1.2261897530522280e-001 -1.1949510254216592e-001
        -2.2386804486557940e-002 2.4936654192222532e-001
        6.3839125667469895e-002 1.5037373858292435e-001
        1.8863533478734745e-002 -4.8843665256829188e-001
        -2.6593445121763326e-001 6.6110516811685158e-002
        2.4840919243777135e-001 5.6428993040489012e-002
        1.7973793789555240e-001 -1.6861798776236714e-001
        -2.2999959767976330e-001 1.8293154101531955e-001
        4.2928923006972969e-001 1.1364123881322444e-001
        4.7788310017411503e-002 6.1732230625292893e-002
        7.1297928391914886e-002 5.0539227137070916e-002
        -2.7475324583428945e-001 6.1307875964417446e-002
        -2.4520404302929200e-001 7.1732531110445780e-002
        2.0917738304700073e-001 -2.7134904138681121e-001
        -1.7180109405292257e-002 2.9226823618028690e-002
        2.8784960344363297e-001 -2.2088440942242485e-001
        -9.4117371242692247e-002 -2.5147557867038921e-002
        3.9208769342745720e-001 -2.2681729443185067e-001
        -1.7014631998944296e-001 -3.9228785943953320e-001
        2.4956918078179327e-001 -9.4774031400923039e-002
        -3.1742131168932175e-001 1.0787874323370816e-001
        1.9898289307199429e-001 -1.9328315096238235e-002
        4.7343105231831141e-002 5.8098691839195429e-002
        1.0741067743891590e-001 3.7239694378255905e-001
        1.7674908595704214e-001 -6.6680005414405635e-002
        -1.7202305353409575e-001 -7.6346277210339500e-002
        -6.2609869107018157e-002 -1.2788485411696235e-001
        2.6592741593749231e-001 -2.8395580151730593e-002
        1.5682596984635849e-001 7.4132977345032464e-002
        -1.8041471800409203e-001 -2.1949372981910456e-001
        -2.0409498274853846e-001 -6.7055049351338242e-002
        -2.2929103731567962e-001 3.2502714861794471e-002
        -4.6861716818918375e-002 -1.9519329312980499e-001
        -2.7178924935618037e-001 1.1743733537775795e-001
        -2.6068427653936621e-001 -3.4266533624062686e-003
        3.1391168526782603e-001 2.1778194761089475e-001
        -7.0586958876053638e-002 3.9797195997201901e-001
        2.7802543244104466e-001 -2.9261800759337431e-001
        2.1444676934078682e-001 6.0887787637237012e-002
        1.7260496882407883e-001 6.1808287125420892e-002
        -3.4827235249793483e-002 -5.3460046637908133e-002
        2.4824318469168360e-001 9.6384352889451644e-002
        4.6418688133391429e-002 -1.2541033039417121e-001
        -3.6407332082411131e-001 -4.3448243852513016e-002
        1.8818696782590263e-001 -2.4734706254960917e-001
        3.4855952596299956e-002 2.4126191212787607e-001
        -1.9848569576445316e-001 -5.6247858032968411e-002
        4.4870817511551375e-001 -5.8447479967269927e-002
        -1.0199410393577599e-001 -3.1853342732188739e-001
        -3.2112422791390503e-002 2.9580951198096500e-001
        -3.6101719386054792e-001 7.0818336412370522e-002
        -6.3874780374891832e-002 2.4385736214900985e-001
        8.2836232214814370e-002 -1.3922827013608904e-001
        3.2334395122625337e-001 1.9420111267768309e-001
        3.3615914453350032e-001 -1.9573714329038658e-001
        2.4576109076447325e-001 2.4026542248721645e-002
        -2.9482006697607682e-001 -7.8690914337722254e-002
        -1.6291887233899530e-002 1.9634697450756321e-002
        -1.6444921969081364e-001 6.8409269620285148e-003
        7.2738104646379281e-002 -1.6398423399916676e-001
        -5.3060670878454930e-001 -2.1817578877389106e-002
        7.4842467184386113e-002 -2.0647326674424799e-001
        2.6896180201908920e-001 -4.8425134064905076e-003
        -1.8092501670714645e-001 1.4515040811456323e-001
        -1.7652096901626063e-001 -3.3579833553509392e-001
        1.8612882697611469e-001 -4.5545943557788299e-001
        2.7256274427357974e-001 -1.1499137035778714e-001
        9.8794826298582925e-002 3.4152444338366832e-003
        1.5104897135758336e-001 1.6979482446169994e-001
        -2.0153238675298707e-001 1.0428553037493556e-001
        -2.0632292103851310e-001 5.7797188924768192e-002
        5.0958620143455639e-002 -2.4255237843591024e-001
        4.3953937820376310e-001 7.2059747360914278e-002
        2.1211447227093086e-001 5.9259282525894906e-003
        2.2440982104208227e-002 9.2254288783540292e-002
        7.3428443959160414e-002 -4.1075278545689103e-001
        2.2002781619142949e-003 2.1750406828860258e-001
        -2.3535261174087485e-001 1.5573334830122695e-001
        3.2137621249881239e-002 3.2173077709505976e-002
        1.7542464422623516e-001 2.2457570603360449e-001
        -2.6475534195979267e-001 2.1912913349999269e-001
        -6.5299324601297198e-002 2.1713278805160668e-001
        -4.4267992150394242e-001 3.5207495012472112e-001
        4.7426495601408568e-002 -2.3040753853395810e-001
        7.9446852091789991e-002 -2.2504664007287534e-001
        6.0669212322467532e-002 9.5665017020126517e-002
        -8.0664894529091872e-003 3.1931491495210018e-002
        8.8839632046409905e-002 -2.1275352128301564e-001
        -1.4550704084273092e-001 2.7976485167996851e-001
        -1.0822326415928961e-001 -9.9202816000106359e-002
        2.0575944853129730e-001 -1.1976699428885156e-001
        7.7533924552978528e-002 1.4598938489620117e-001
        -1.4728210393614777e-001 1.0272465539854145e-001
        -4.1985774104017444e-002 -1.9270418956527799e-001
        3.4709378173223288e-001 -4.9078012518284553e-001
        4.0530697570370655e-001 -3.4241966591663026e-001
        -8.3960347350382717e-003 9.9473174558837044e-002
        8.7967279909161755e-002 9.8073346247923160e-002
        6.3136921194395521e-003 2.1809375888181090e-002
        -1.1471818344248730e-002 2.8587685446926397e-001
        -3.1693373658951729e-001 3.0229130969906065e-001
        -8.7657743047866762e-002 4.1759704076221538e-002
        -1.0359873135209384e-001 -1.4608230331583386e-002
        3.1363787486186935e-002 -1.7177495358295350e-001
        -1.7613901565470956e-003 -5.3332073765651321e-002
        6.8837361910396994e-002 -9.4388164134102823e-002
        7.0386375409489679e-002 5.3687451174487484e-002
        4.9579802943113489e-002 7.1789405468025425e-002
        1.1961658085890474e-001 -5.1096030356584532e-001
        5.2336160323926006e-001 -2.9470252761124971e-001
        6.0059376254312444e-002 -6.1281360750173944e-002
        -9.9376033457496196e-003 -1.6985214474658544e-001
        5.0286920869269158e-001 -4.4242444958816474e-001
        2.9698079791749123e-002 3.7568650877842863e-002
        -3.2610001199655188e-002 2.9569321694621155e-002
        -2.1844381745819000e-001 3.4640564104061772e-001
        -1.9031839382364391e-001 3.3088513311739579e-002
        5.1610426885315516e-002 -1.0403117849312794e-001
        2.0897136696246602e-001 -1.1131872467287444e-001
        -1.5195788012541830e-002 2.2800479685878193e-002
        1.5138252500663263e-001 -3.2756450916676194e-001
        3.1646507080786523e-001 -1.1014203790559943e-001
        -4.6360869676541523e-003 -1.8898291723350887e-002
        -6.8453640299130730e-002 3.0904573697042648e-001
        -3.8414231675837279e-001 1.0523619212293700e-001
        1.3699329827134604e-001 -1.0185895184325254e-001
        -4.5672332472783773e-002 1.2791923656132004e-001
        -4.0893754997445197e-001 5.5664693459551506e-001
        -4.0110463293695975e-001 9.3083557082751026e-002
        -4.8365989416871823e-003 1.3335624220882839e-002
        7.0190998366055826e-003 6.5997029991437417e-002
        -9.9374408310776416e-002 9.1046319178289176e-002
        -1.8200258442206959e-002 7.8997765351466701e-002
        -1.2083732594252043e-001 4.5040433222916960e-002
        -3.0777879396093291e-002 -4.2025705507469299e-003</data></_></cov_rotate_mats>
  <c type_id="opencv-matrix">
    <rows>1</rows>
    <cols>4</cols>
    <dt>d</dt>
    <data>
      -3.2671169832722340e+000 3.6442856683855922e+000
      1.6306163801933778e+001 7.1153863179742359e+001</data></c></my_nb>
</opencv_storage>
